#ifndef _WEIGHT_H_
#define _WEIGHT_H_

#include "parameters.h"

DTYPE CONV_OFFSET_W[CONV_OFFSET_FILTERS][CONV_KERNEL_SIZE_0][CONV_KERNEL_SIZE_1] = {
    {
        {-0.00020013118046335876, -0.0001995947095565498, 0.00019777289708144963},
        {0.00019933994917664677, 0.00018167367670685053, 0.00020002987002953887},
        {0.0001948789576999843, -0.00020005089754704386, -0.00018063207971863449}
    },
    {
        {-0.0001987917348742485, 0.000198086941963993, 0.00011750893463613465},
        {0.00018756416102405638, -0.00019592096214182675, 0.0001970652665477246},
        {0.0001958388020284474, 0.0001993765908991918, 0.00013437948655337095}
    },
    {
        {0.00019166379934176803, 0.00019973862799815834, -0.00019991521548945457},
        {-0.00019671705376822501, -0.00019747808983083814, -0.00018999172607436776},
        {2.5861620088107884e-05, 0.00019285836606286466, 3.395340172573924e-05}
    },
    {
        {0.0001899037160910666, 0.00019955335301347077, -0.00019866801449097693},
        {-0.00019579831860028207, 3.275561903137714e-05, -0.00018370896577835083},
        {-5.419031367637217e-05, 0.00020006595877930522, -0.0001977838110178709}
    },
    {
        {0.00020010670414194465, -0.00018813417409546673, -0.00019319774582982063},
        {-0.00013865777873434126, 0.00018919925787486136, -2.745415986282751e-05},
        {0.00019600812811404467, 0.0001915401080623269, -0.00019773258827626705}
    },
    {
        {0.0001982217945624143, -0.00018569789244793355, -0.00019427674124017358},
        {-4.409051325637847e-05, 0.0001959990186151117, -0.00019872785196639597},
        {0.00019793299725279212, 0.00019691497436724603, -0.00014929153257980943}
    },
    {
        {4.083513340447098e-05, -0.00020011953893117607, -0.00019998328934889287},
        {-0.00019772187806665897, -0.00019982855883426964, 0.00018721914966590703},
        {0.00019573766621761024, 6.003359885653481e-05, 4.3954623833997175e-05}
    },
    {
        {9.251439769286662e-05, 0.00019838521257042885, 0.00019543434609659016},
        {0.00019704134319908917, -0.00011312134301988408, 0.00020005587430205196},
        {0.00019855867139995098, -7.31826585251838e-05, 0.00018254411406815052}
    },
    {
        {-0.00017502374248579144, 0.00019924656953662634, 0.00020010245498269796},
        {0.00019326705660205334, 0.00019782841263804585, -0.00019921304192394018},
        {0.00019010211690329015, -0.00018592877313494682, -0.00011152617662446573}
    },
    {
        {-0.00017652037786319852, 0.00019662902923300862, 8.88716967892833e-05},
        {-3.1958697945810854e-05, 0.00019985907420050353, -0.00020001771918032318},
        {0.00018578796880319715, -0.0001950567530002445, -2.9351060220506042e-05}
    },
    {
        {-0.0001997962244786322, 0.00018547069339547306, -0.00019462162163108587},
        {-0.0001994080375880003, -0.00019617652287706733, -0.00019969460845459253},
        {-0.00019992668239865452, -0.00018482730956748128, 0.00019870520918630064}
    },
    {
        {-0.00019982748199254274, 0.00019220856484025717, -0.0001975354680325836},
        {0.000192135528777726, -0.00017955053772311658, -0.00019970937864854932},
        {0.00019078464538324624, -0.00019420440366957337, 0.00019234797218814492}
    },
    {
        {0.00019977550255134702, -6.79063523421064e-05, 0.00019073247676715255},
        {0.00018453237134963274, 0.0001981022214749828, -0.00019839900778606534},
        {0.00020013455650769174, 0.00019788724603131413, -0.00019889185205101967}
    },
    {
        {-0.00019900506595149636, -0.00016806574421934783, 0.00019422706100158393},
        {0.00017548822506796569, -4.632755008060485e-05, -0.00015003542648628354},
        {0.00019976036855950952, -0.00019805703777819872, -0.00019983942911494523}
    },
    {
        {-0.00019113408052362502, -0.00019729748601093888, 0.00019501311180647463},
        {-0.0001762532483553514, -0.00018488717614673078, -0.00018068590725306422},
        {-0.00019248970784246922, -0.0001997177314478904, -0.00010320576257072389}
    },
    {
        {-0.00019769108621403575, -7.85526935942471e-05, 0.00019780405273195356},
        {-0.000192803650861606, -0.00019680167315527797, -3.8269165088422596e-05},
        {-0.00019553497259039432, -0.0001999757660087198, 0.0001984979899134487}
    },
    {
        {-3.619323979364708e-05, -0.0001930695289047435, -0.00019705519662238657},
        {-0.000160482813953422, 0.00019407004583626986, -4.051736323162913e-05},
        {-0.00019997433992102742, -0.00018573456327430904, 0.00018389231991022825}
    },
    {
        {0.00020006304839625955, -0.00019993890600744635, -0.00019624870037660003},
        {0.00018356324289925396, 0.0002001349930651486, -0.00019923497166018933},
        {-0.0001831335830502212, 2.844472328433767e-05, 0.00019967093248851597}
    }
};

DTYPE CONV_OFFSET_B[CONV_OFFSET_FILTERS] = {-3.1573807063978165e-05, 0.00018243558588437736, 0.00018317715148441494, 0.00017973323701880872, -0.00012572600098792464, -3.841552825178951e-05, 0.00018560551689006388, -0.00019947488908655941, 0.0001930995495058596, -4.5099746785126626e-05, 0.00018848854233510792, 0.00018999120220541954, -6.764306453987956e-05, 0.00018074156832881272, 0.00019537520711310208, 0.00018766007269732654, -0.00010796372953336686, -0.000199232847080566};

DTYPE CONV_OUT_W[CONV_FILTERS][CONV_KERNEL_SIZE_0][CONV_KERNEL_SIZE_1] = {
    {
        {0.2955140769481659, -0.10936015844345093, 0.10409777611494064},
        {0.24753084778785706, 0.19025635719299316, 0.13234107196331024},
        {-0.10176943242549896, 0.1929754763841629, -0.31753167510032654}
    },
    {
        {0.02354336343705654, 0.044059403240680695, -0.0769142284989357},
        {0.30923137068748474, -0.3149699568748474, -0.21121293306350708},
        {0.28021666407585144, -0.09209437668323517, 0.05747918039560318}
    },
    {
        {0.03338790684938431, 0.27365484833717346, 0.0043051764369010925},
        {-0.10113783925771713, -0.12419596314430237, -0.10705915093421936},
        {-0.23265396058559418, 0.11701039224863052, -0.02054809220135212}
    },
    {
        {-0.21083824336528778, -0.09011197835206985, -0.06999047100543976},
        {0.11180244386196136, -0.2290925532579422, 0.3231693208217621},
        {-0.3076678514480591, 0.32381826639175415, 0.002639830345287919}
    },
    {
        {0.1266350895166397, 0.11263353377580643, -0.2860603332519531},
        {-0.299444317817688, 0.05252905189990997, -0.07468399405479431},
        {-0.14907602965831757, -0.14502502977848053, -0.22248806059360504}
    },
    {
        {0.14283855259418488, -0.27016499638557434, -0.16698028147220612},
        {0.1753256469964981, 0.14092609286308289, -0.12113627791404724},
        {-0.31906917691230774, 0.16134312748908997, 0.2738771438598633}
    },
    {
        {-0.16087667644023895, 0.29217851161956787, -0.16637055575847626},
        {0.23096433281898499, 0.14661939442157745, -0.2659401595592499},
        {0.08579162508249283, -0.17154650390148163, -0.09156046062707901}
    },
    {
        {0.010898413136601448, -0.24017098546028137, 0.1272965669631958},
        {0.23446813225746155, -0.07041899859905243, 0.15267972648143768},
        {-0.2931874692440033, 0.03262071684002876, -0.17430001497268677}
    }
};

DTYPE CONV_OUT_B[CONV_FILTERS] = {0.01014492567628622, -0.10956202447414398, -0.18130330741405487, -0.08332974463701248, -0.3064507842063904, -0.14928153157234192, -0.15316081047058105, 0.32334980368614197};

DTYPE GRU_W_IH[GRU_W_IH_SIZE] = {-0.0882406011223793, -0.14032600820064545, 0.1226893961429596, 0.046562712639570236, 0.017773903906345367, 0.11693976074457169, 0.13419164717197418, 0.1673799753189087, -0.08101088553667068, 0.08642260730266571, -0.003364910837262869, 0.028971079736948013, -0.09794791787862778, 0.12115787714719772, 0.021251605823636055, -0.015143086202442646, 0.044168394058942795, 0.13942714035511017, -0.07248517870903015, 0.17563417553901672, 0.13522610068321228, -0.07465443015098572, -0.12275563180446625, 0.048499010503292084, 0.12080966681241989, -0.012764992192387581, 0.13482671976089478, 0.1549701690673828, 0.08360845595598221, 0.058737993240356445, 0.07402674108743668, -0.054619576781988144, -0.13362741470336914, -0.13423210382461548, -0.07157259434461594, 0.09256882965564728, 0.14558188617229462, -0.14962053298950195, -0.05792960524559021, -0.10623830556869507, -0.04083000868558884, 0.15066738426685333, -0.093769371509552, 0.02840842492878437, 0.03609739989042282, 0.14746597409248352, 0.13050208985805511, 0.08037813007831573, 0.12853965163230896, 0.11657728999853134, -0.014373415149748325, 0.0758371502161026, -0.10621064901351929, 0.14748060703277588, 0.03624597564339638, 0.10679332911968231, 0.05967571213841438, 0.12464740127325058, -0.029805170372128487, 0.13976341485977173, -0.16407741606235504, -0.1452380269765854, 0.12300901114940643, 0.07710724323987961, 0.04772685840725899, 0.10597595572471619, -0.07564084976911545, -0.09581978619098663, -0.08503615856170654, 0.128401979804039, 0.12478544563055038, -0.02904096432030201, -0.005284901708364487, -0.025777529925107956, 0.1552606225013733, -0.01814413070678711, -0.14127808809280396, -0.11240076273679733, 0.12208280712366104, -0.09906555712223053, 0.10017886757850647, -0.06610418111085892, 0.07949543744325638, -0.08741443604230881, -0.09732083231210709, -0.10785199701786041, -0.08924303203821182, 0.07993550598621368, 0.09588637202978134, 0.04800929129123688, 0.0161429550498724, -0.03777075558900833, 0.13687890768051147, -0.019245097413659096, 0.04732382670044899, -0.1386204957962036, -0.004374859854578972, 0.05486935377120972, -0.0752677470445633, -0.12265589833259583, 0.1521875560283661, -0.15383663773536682, 0.11144363135099411, -0.02649165503680706, -0.07180552929639816, -0.17606280744075775, -0.15071013569831848, 0.05171864479780197, 0.03362240269780159, -0.022283006459474564, 0.11900582909584045, -0.13349159061908722, 0.09201351553201675, 0.03132791444659233, 0.058171503245830536, 0.018834136426448822, 0.1547078788280487, -0.009258895181119442, 0.004661083221435547, -0.14181138575077057, 0.024494223296642303, 0.12270843982696533, -0.0012571674305945635, -0.1014750599861145, 0.16113747656345367, -0.0809444859623909, -0.1320054978132248, -0.17569346725940704, 0.041809771209955215, 0.044567566365003586, -0.08313315361738205, 0.05747522413730621, -0.017936723306775093, 0.13062520325183868, 0.1591760516166687, -0.1762518733739853, -0.13596096634864807, -0.08036550879478455, 0.1090310662984848, -0.10125478357076645, 0.045899733901023865, -0.09547938406467438, 0.0735691487789154, 0.01789220981299877, -0.1529359668493271, 0.0419740304350853, -0.13685990869998932, -0.12187997996807098, -0.03186818212270737, -0.14597539603710175, -0.12498141825199127, -0.1400413066148758, -0.04333105310797691, -0.12634974718093872, -0.12244436889886856, 0.09872947633266449, -0.17027276754379272, -0.11523860692977905, -0.05663632974028587, 0.05965549498796463, -0.10328890383243561, 0.1709444373846054, -0.06915212422609329, 0.10652663558721542, -0.10254842787981033, 0.15284322202205658, 0.08437590301036835, 0.05009602755308151, 0.1185545101761818, -0.1715085804462433, 0.15279528498649597, -0.05535607784986496, 0.10964310169219971, -0.05099158361554146, 0.044350385665893555, 0.1442575454711914, 0.010785653255879879, 0.04915037751197815, 0.014527286402881145, -0.1362188309431076, -0.09770672768354416, 0.02762008272111416, 0.018491966649889946, -0.17581991851329803, 0.11781467497348785, 0.06646879762411118, 0.06824029237031937, 0.0939410999417305, -0.06424935162067413, 0.11973094195127487, 0.09339970350265503, 0.04318563640117645, -0.05035165697336197, -0.12821611762046814, -0.08037913590669632, 0.14075614511966705, 0.05030476301908493, 0.07313773781061172, -0.17073220014572144, -0.07583590596914291, 0.09666229039430618, -0.052954547107219696, 0.05385283753275871, -0.011070995591580868, -0.14872324466705322, -0.03883847966790199, 0.03738313540816307, -0.05842364579439163, -0.0272995512932539, 0.017962193116545677, 0.025926953181624413, -0.03103788010776043, 0.15318037569522858, -0.1046990230679512, -0.08991815894842148, 0.16330592334270477, 0.024180058389902115, 0.04815137758851051, 0.15663699805736542, 0.09995611011981964, -0.027263443917036057, -0.13051414489746094, 0.0884917825460434, 0.04610610753297806, 0.049531277269124985, 0.12264148145914078, 0.019286109134554863, -0.09660505503416061, -0.16331607103347778, 0.07917565852403641, 0.1221669614315033, -0.1636768877506256, 0.09231677651405334, 0.13559295237064362, 0.0017973606009036303, 0.1404188722372055, 0.009600694291293621, -0.1209006980061531, -0.09428058564662933, 0.05691022425889969, 0.06380078941583633, -0.018268760293722153, 0.152210995554924, -0.12109242379665375, -0.11952969431877136, -0.11426182091236115, 0.1409863829612732, 0.17539401352405548, -0.03295010328292847, 0.16408291459083557, -0.08815664052963257, 0.04955555498600006, 0.06901756674051285, -0.13705310225486755, 0.03006739169359207, 0.05923444777727127, 0.13747870922088623, -0.1180887445807457, -0.1047537624835968, 0.1634986698627472, -0.1263658106327057, -0.11071327328681946, 0.013068527914583683, -0.09023743867874146, 0.05846819281578064, -0.08786746859550476, 0.17336127161979675, 0.10338648408651352, -0.12736350297927856, -0.007183394860476255, 0.17542366683483124, 0.05195892974734306, 0.04997262358665466, -0.053789228200912476, 0.15202461183071136, -0.02479717880487442, 0.08142788708209991, 0.0007758254068903625, 0.036711204797029495, -0.060824643820524216, -0.15863004326820374, 0.058173954486846924, -0.10724511742591858, 0.014004973694682121, -0.13535453379154205, 0.06479571014642715, -0.1705150604248047, -0.17122818529605865, -0.13895542919635773, 0.03947768360376358, -0.007158496417105198, 0.14681746065616608, 0.030553018674254417, 0.09299635142087936, 0.03335309773683548, 0.06426869332790375, -0.03242999687790871, -0.02010975405573845, 0.13708068430423737, -0.1401825249195099, -0.12748926877975464, -0.04810550436377525, 0.0037105847150087357, -0.1616513431072235, 0.09177366644144058, -0.007301272824406624, -0.09539076685905457, 0.07140064239501953, -0.026561548933386803, 0.08198144286870956, -0.13604211807250977, 0.08049873262643814, 0.1133350133895874, -0.04404904693365097, -0.015676677227020264, 0.13370493054389954, -0.11503303050994873, 0.1555578112602234, -0.073329858481884, 0.043322402983903885, 0.04976218566298485, 0.0826374739408493, -0.175441712141037, -0.14150293171405792, -0.16236451268196106, 0.12434983253479004, 0.11516563594341278, 0.04876474663615227, -0.1412629932165146, 0.16970773041248322, 0.03955335170030594, -0.10690384358167648, 0.15294890105724335, 0.008044276386499405, 0.08133795857429504, -0.05647113174200058, -0.147745281457901, -0.10180075466632843, 0.04763711243867874, 0.04914851859211922, -0.1555679738521576, 0.0019131094450131059, 0.1668490469455719, -0.14094644784927368, -0.14208154380321503, 0.05710616707801819, -0.06637978553771973, 0.06987201422452927, 0.020659999921917915, -0.044361986219882965, -0.05328451097011566, -0.05563713237643242, 0.06191356107592583, -0.08691638708114624, 0.16448329389095306, -0.16852246224880219, 0.11207443475723267, 0.003652724903076887, 0.04021298512816429, 0.17017672955989838, -0.06775545328855515, 0.09696415066719055, -0.15847598016262054, -0.0786309465765953, 0.059648528695106506, 0.08510744571685791, -0.10710755735635757, -0.009220116771757603, 0.13532035052776337, 0.0007850924739614129, 0.05449942871928215, -0.09922104328870773, -0.17642706632614136, -0.08106304705142975, 0.17486725747585297, 0.03818395733833313, -0.009980499744415283, -0.09761126339435577, -0.17457954585552216, 0.06846412271261215, -0.1758824735879898, -0.12627345323562622, -0.16793709993362427, 0.03756480664014816, 0.050377923995256424, 0.12370111793279648, -0.16797640919685364, -0.14450062811374664, -0.03286110237240791, -0.12992776930332184, -0.029228806495666504, -0.12292029708623886, 0.022577445954084396, -0.09173496067523956, 0.12600699067115784, -0.05337505042552948, -0.029575010761618614, 0.159127876162529, 0.06257152557373047, 0.010393279604613781, -0.14963479340076447, -0.10589418560266495, 0.013987982645630836, -0.17233604192733765, 0.1528729647397995, 0.16953974962234497, 0.06721068918704987, -0.1461351066827774, 0.1446894109249115, -0.0042114551179111, 0.06373099237680435, 0.11027850955724716, -0.03946332633495331, 0.1415928453207016, 0.13937480747699738, 0.10387808084487915, -0.16475515067577362, -0.17095765471458435, -0.1346132606267929, -0.17324964702129364, -0.046171706169843674, 0.05818156898021698, 0.14467673003673553, 0.06609858572483063, -0.07751896977424622, 0.17049580812454224, 0.07340102642774582, -0.04080864414572716, 0.13616129755973816, -0.06528298556804657, -0.1463416963815689, -0.07348205149173737, -0.004807149991393089, -0.06300102174282074, -0.12525635957717896, 0.015546929091215134, -0.035891592502593994, -0.140166774392128, 0.11897823959589005, -0.08013351261615753, 0.00877342838793993, -0.1710134744644165, -0.0026191321667283773, -0.07868294417858124, 0.16495344042778015, 0.1030363216996193, 0.013745905831456184, 0.05581683665513992, 0.1303786337375641, 0.15806959569454193, -0.02881263755261898, -0.12168437987565994, 0.023899169638752937, 0.11003190279006958, -0.10344374924898148, 0.09307081997394562, 0.016995102167129517, -0.1052124947309494, -0.051785729825496674, 0.02220374532043934, 0.08218888938426971, -0.10627370327711105, 0.06668281555175781, -0.03061870113015175, 0.1416454315185547, 0.06487474590539932, -0.13217304646968842, -0.11129944771528244, 0.061523016542196274, 0.020647967234253883, 0.06495324522256851, -0.01839808002114296, 0.08176430314779282, 0.06571618467569351, -0.10749717801809311, 0.023272322490811348, 0.12724082171916962, -0.04244926944375038, -0.07949977368116379, 0.04548724740743637, -0.1299142837524414, -0.10988020896911621, -0.06354688107967377, 0.03618614375591278, -0.17628391087055206, -0.019053786993026733, 0.05656580626964569, 0.10826465487480164, -0.08358002454042435, 0.02043420448899269, -0.09627433866262436, -0.08427204936742783, 0.17624405026435852, 0.11760775744915009, -0.17483103275299072, 0.10621042549610138, -0.06875862181186676, -0.1446930468082428, 0.009297432377934456, 0.11316251754760742, 0.0980171263217926, -0.05784033611416817, 0.1580212414264679, 0.1469281017780304, 0.10402750223875046, -0.00816309917718172, -0.0583084374666214, 0.03810132294893265, -0.1416245698928833, -0.026736225932836533, 0.050540193915367126, 0.11977830529212952, 0.1299915462732315, -0.06934294104576111, -0.166184201836586, -0.013103929348289967, 0.05618774890899658, -0.14625200629234314, -0.09637189656496048, 0.106046661734581, -0.15056473016738892, 0.12362471222877502, 0.0668235570192337, -0.173426553606987, 0.12396030873060226, -0.07375209778547287, 0.06408576667308807, 0.14020399749279022, 0.08206925541162491, -0.1493529975414276, -0.1035338044166565, -0.04051144793629646, 0.09031591564416885, -0.0370071716606617, 0.08384206146001816, 0.09522143751382828, 0.020974701270461082, -0.1658679097890854, -0.07191016525030136, -0.03797011449933052, -0.0857435092329979, -0.15690796077251434, -0.0493219755589962, 0.14515694975852966, 0.017702560871839523, -0.00045486673479899764, 0.04618300125002861, -0.006408363580703735, -0.06588967144489288, -0.03155240789055824, -0.007567685563117266, 0.0285884290933609, 0.13363182544708252, 0.1711733192205429, -0.054504889994859695, -0.024631336331367493, 0.027382731437683105, -0.11426478624343872, 0.04681594297289848, 0.04638272151350975, 0.07973672449588776, -0.15625214576721191, 0.0944439172744751, -0.1140623688697815, -0.052333131432533264, 0.13107335567474365, 0.0555524080991745, -0.009954576380550861, 0.1733391135931015, -0.0460139736533165, -0.10408110916614532, 0.1309601217508316, -0.1706220805644989, -0.03889467194676399, 0.12896732985973358, 0.07843877375125885, 0.06748033314943314, -0.07448109984397888, -0.10993542522192001, -0.17191827297210693, -0.078771211206913, 0.09310386329889297, 0.13809068500995636, -0.06082818657159805, -0.045787569135427475, -0.08563345670700073, -0.1659214049577713, -0.006681955419480801, -0.02456742152571678, -0.15363788604736328, 0.07540450990200043, -0.04537360742688179, 0.0841851681470871, 0.1159382164478302, -0.02647600695490837, -0.16086246073246002, 0.05728371813893318, -0.03286759927868843, -0.03668249025940895, 0.051532287150621414, -0.15329128503799438, -0.07895831763744354, -0.1343250870704651, 0.147841677069664, -0.05081421881914139, 0.023564336821436882, -0.10696423798799515, -0.1692354530096054, -0.03802173212170601, -9.489147487329319e-05, 0.10897782444953918, 0.0830075591802597, 0.043228454887866974, -0.11546970903873444, -0.027406353503465652, 0.06119062751531601, -0.16513918340206146, 0.09842179715633392, -0.026405196636915207, -0.05336291715502739, 0.007438168860971928, -0.004267797339707613, 0.02255638875067234, 0.10949739813804626, 0.14642871916294098, 0.034859806299209595, 0.09274175763130188, 0.07842177152633667, 0.0635954737663269, 0.10124849528074265, -0.09081309288740158, -0.15223342180252075, 0.04912525787949562, -0.15335297584533691, -0.08216078579425812, -0.05431048944592476, -0.032778266817331314, 0.15456849336624146, -0.0902642011642456, -0.07219493389129639, 0.0043889181688427925, 0.1050291433930397, 0.08609292656183243, 0.07232466340065002, -0.13638927042484283, -0.09264739602804184, -0.04400067776441574, 0.12574633955955505, -0.05680730566382408, 0.01089621614664793, -0.15771439671516418, -0.15702590346336365, -0.16590552031993866, -0.16402971744537354, -0.11759024113416672, -0.0873810276389122, -0.01943369396030903, -0.03796837478876114, -0.058432213962078094, -0.08145881444215775, -0.004888664465397596, -0.003528525587171316, 0.00041922577656805515, -0.12216393649578094, -0.09091582149267197, 0.0013762672897428274, -0.04345526173710823, -0.12620554864406586, -0.04780345782637596, -0.02676784247159958, -0.096848264336586, -0.12240205705165863, -0.0715312585234642, -0.11846202611923218, 0.15251478552818298, 0.05074784904718399, -0.06036248430609703, 0.027524743229150772, 0.007839915342628956, 0.15072651207447052, 0.127102330327034, -0.02937302365899086, -0.09987879544496536, 0.07010027021169662, -0.014472718350589275, 0.09982196986675262, -0.0712595134973526, 0.019188670441508293, 0.17235521972179413, 0.1133127212524414, 0.043174125254154205, -0.12051470577716827, -0.043220583349466324, 0.028955601155757904, -0.08715853840112686, -0.1624850183725357, -0.03847907483577728, -0.004842352122068405, -0.1340424120426178, 0.10137742012739182, -0.12428394705057144, -0.17573760449886322, -0.10665448009967804, -0.0775432363152504, -0.08856987953186035, -0.09079287946224213, 0.14041195809841156, -0.057834066450595856, 0.09515850245952606, -0.03999811410903931, 0.1659800261259079, 0.06801020354032516, 0.16304375231266022, 0.03538708761334419, -0.05894535779953003, 0.020743753761053085, 0.011098028160631657, -0.09283686429262161, 0.02908838912844658, -0.17361372709274292, -0.11922520399093628, 0.1258450299501419, -0.11934787780046463, -0.1564117819070816, -0.03337773680686951, 0.12825670838356018, -0.07766460627317429, 0.13117708265781403, 0.10905535519123077, 0.018750028684735298, 0.028320983052253723, 0.1515803188085556, 0.05072135850787163, -0.07411577552556992, -0.05451864376664162, 0.04470677673816681, -0.05904953181743622, -0.16580083966255188, 0.12839016318321228, -0.0198353361338377, -0.06860794126987457, 0.02205471880733967, 0.16082943975925446, -0.13932037353515625, -0.11093898117542267, 0.09780754894018173, -0.07828980684280396, 0.12201625108718872, -0.07826095074415207, 0.17301733791828156, -0.07008647173643112, -0.10832633823156357, 0.17213502526283264, 0.0833112820982933, 0.020010462030768394, 0.15762373805046082, -0.07267627120018005, -0.17273548245429993, 0.17150302231311798, 0.04337164759635925, 0.11282054334878922, -0.07464014738798141, 0.0009681883966550231, -0.0745968222618103, -0.030573273077607155, -0.003152276389300823, -0.011953144334256649, -0.02958502061665058, 0.0782899558544159, 0.1527390480041504, -0.11097902804613113, 0.13368980586528778, 0.06641986966133118, 0.11639779806137085, -0.08871425688266754, 0.12300064414739609, -0.1435641199350357, 0.029820047318935394, -0.15561160445213318, 0.08319820463657379, -0.16678816080093384, -0.035547155886888504, -0.10870634019374847, 0.047684766352176666, 0.12975284457206726, 0.09062933176755905, -0.08427217602729797, -0.074506476521492, 0.008151556365191936, 0.1411077231168747, 0.16017349064350128, 0.16983579099178314, 0.059131987392902374, 0.12617269158363342, 0.10644702613353729, -0.011257486417889595, -0.1525193303823471, -0.10904589295387268, -0.17534573376178741, -0.023705797269940376, -0.16095802187919617, 0.13873538374900818, 0.04594701901078224, 0.022031564265489578, -0.10051742196083069, -0.11502435803413391, 0.13162197172641754, 0.1435418426990509, 0.11844398826360703, 0.10673023015260696, 0.018143383786082268, -0.06814165413379669, 0.1350531429052353, -0.09860828518867493, 0.06506633758544922, 0.12860293686389923, -0.002723436336964369, 0.06694984436035156, -0.0026477715000510216, 0.09823490679264069, -0.06900390237569809, -0.14229050278663635, -0.041012853384017944, 0.07387518137693405, -0.04420475661754608, -0.163705512881279, 0.11802341789007187, -0.09530665725469589, 0.12677788734436035, 0.1426226794719696, -0.12439121305942535, -0.018858416005969048, -0.004521809983998537, -0.06487290561199188, 0.15877710282802582, 0.07496911287307739, -0.14807148277759552, -0.16001024842262268, 0.09275829792022705, -0.16433042287826538, -0.05680261179804802, 0.04457802325487137, 0.07179635018110275, 0.17622904479503632, -0.07960587739944458, -0.13499675691127777, 0.11683467030525208, 0.04578058421611786, 0.16821160912513733, 0.09120544791221619, -0.10296010971069336, -0.16482466459274292, 0.049390971660614014, -0.07614372670650482, 0.0508996956050396, -0.07618620246648788, 0.03223099187016487, 0.013096880167722702, -0.12538063526153564, -0.0011381375370547175, 0.043729230761528015, 0.026461102068424225, 0.10382299870252609, 0.16172392666339874, 0.11600171029567719, -0.019559670239686966, -0.014723983593285084, -0.016786161810159683, -0.013017142191529274, 0.1426166146993637, -0.028651710599660873, 0.150799959897995, 0.00865939725190401, 0.1589593142271042, 0.11126481741666794, -0.011747024953365326, -0.15805982053279877, -0.10539161413908005, 0.04780683293938637, -0.08131635934114456, 0.04582219198346138, 0.1491837203502655, -0.07614755630493164, -0.01958572492003441, -0.04791735112667084, 0.17653736472129822, 0.11092764884233475, -0.11635895818471909, -0.16515909135341644, -0.1681561917066574, -0.05355712026357651, 0.13677078485488892, 0.15862807631492615, -0.1561356633901596, -0.16930922865867615, 0.1714017540216446, -0.08262470364570618, -0.016708895564079285, -0.08938118815422058, 0.13093672692775726, -0.0982026681303978, -0.01661122962832451, 0.037072114646434784, -0.026275627315044403, 0.004517910536378622, 0.1709299385547638, 0.16342367231845856, -0.14426372945308685, -0.13775575160980225, -0.05549435690045357, 0.159635528922081, -0.029919398948550224, -0.08041948080062866, -0.14472128450870514, -0.07609932124614716, 0.013439514674246311, -0.0435735322535038, 0.10929311066865921, 0.09761567413806915, -0.150233656167984, -0.03706438094377518, 0.11663376539945602, -0.07901635020971298, 0.05553099140524864, -0.06888066232204437, -0.16598333418369293, 0.17087256908416748, 0.11487124115228653, 0.0545521154999733, 0.08715631812810898, 0.07831123471260071, -0.14717364311218262, -0.034444067627191544, 0.16135185956954956, -0.018900927156209946, -0.10053315758705139, 0.13554634153842926, 0.15742197632789612, 0.12060713022947311, -0.004229510668665171, -0.002742006676271558, 0.10131590813398361, 0.1329602748155594, -0.1677391231060028, 0.12463594228029251, -0.1661399006843567, 0.01116359606385231, -0.055890634655952454, 0.1619630753993988, 0.035755470395088196, -0.03790966793894768, -0.1335669606924057, 0.023741303011775017, 0.14436013996601105, 0.13283002376556396, 0.04999539256095886, 0.04189150035381317, 0.10878642648458481, -0.1491541713476181, 0.16643044352531433, 0.1356816589832306, -0.06624771654605865, 0.1343473643064499, 0.10370025783777237, 0.05557682365179062, 0.1518503725528717, -0.07627391070127487, -0.031857654452323914, 0.07506580650806427, -0.08828271925449371, -0.10628888756036758, -0.1736716479063034, 0.004575318656861782, 0.06937173753976822, 0.005657385569065809, 0.1401786357164383, -0.15529420971870422, -0.0661277174949646, -0.04733879119157791, 0.0765610933303833, 0.07927201688289642, 0.05225534737110138, -0.08597791939973831, 0.05411214381456375, -0.1378016471862793, 0.03699997067451477, -0.14168168604373932, 0.13929452002048492, -0.05782695114612579, -0.08130482584238052, -0.11252947151660919, -0.024266580119729042, -0.13232557475566864, 0.07781839370727539, -0.1694948524236679, 0.03108801878988743, 0.11239231377840042, 0.014736158773303032, 0.0006414024392142892, -0.0359296053647995, 0.15855127573013306, -0.1420687735080719, 0.04835794121026993, -0.05517180263996124, 0.029873324558138847, 0.052881620824337006, 0.1428866982460022, 0.13360686600208282, -0.01615048572421074, 0.0002624965272843838, 0.14643213152885437, -0.0076203616335988045, -0.031636305153369904, 0.1138397753238678, -0.10009811818599701, 0.13392524421215057, -0.022831199690699577, 0.16075804829597473, -0.009595368057489395, -0.09566885232925415, 0.03174214065074921, 0.01799440011382103, -0.09348437190055847, 0.14873668551445007, 0.14527961611747742, 0.095871202647686, -0.10899465531110764, -0.10438256710767746, 0.10715771466493607, -0.08911362290382385, 0.038482725620269775, -0.08790738880634308, 0.04302113503217697, 0.027486668899655342, 0.1575280725955963, -0.12498459219932556, 0.11075132340192795, -0.013174432329833508, 0.07920873910188675, -0.06319534033536911, 0.16430675983428955, 0.14864671230316162, 0.05685468763113022, -0.04305916279554367, 0.08223001658916473, 0.14368954300880432, -0.10756572335958481, -0.14048418402671814, -0.143517404794693, -0.011802168563008308, 0.0599338561296463, -0.14290322363376617, 0.15357138216495514, 0.10060149431228638, -0.15953916311264038, 0.14355789124965668, 0.16649727523326874, -0.018873073160648346, -0.03439376875758171, -0.06298166513442993, -0.09189918637275696, 0.1745341718196869, 0.09742815047502518, -0.02889760583639145, -0.020402539521455765, 0.027353966608643532, 0.02296367473900318, -0.012540494091808796, -0.04179873317480087, 0.09942018240690231, 0.15122444927692413, 0.013243799097836018, -0.04195651784539223, 0.10559885948896408, 0.059183623641729355, 0.16775347292423248, -0.11186827719211578, 0.04409714415669441, -0.09073379635810852, 0.01367716770619154, 0.10836358368396759, -0.03701435774564743, 0.16961927711963654, -0.14206883311271667, 0.0654735118150711, -0.088666170835495, 0.045525629073381424, -0.024878762662410736, -0.11020668596029282, 0.1222260594367981, -0.0841948613524437, 0.0007457042811438441, 0.10008534789085388, 0.012456918135285378, 0.1336631178855896, 0.02280857227742672, -0.15162436664104462, 0.16020257771015167, -0.026907360181212425, -0.10241721570491791, -0.0971859022974968, -0.13105539977550507, -0.0913848876953125, -0.027903197333216667, -0.005770680960267782, -0.11189337074756622, 0.04446319490671158, -0.14579051733016968, -0.021312735974788666, -0.07403822243213654, -0.042780548334121704, -0.02335512451827526, -0.1436394900083542, 0.03514544293284416, -0.1274951547384262, 0.15705229341983795, -0.03948987275362015, 0.01570941135287285, 0.050278935581445694, -0.12962056696414948, 0.12393628060817719, -0.161495640873909, -0.1563505232334137, 0.02797340229153633, -0.1532256007194519, 0.15849649906158447, -0.05219433084130287, 0.041319839656353, 0.061766885221004486, 0.08660173416137695, 0.038002271205186844, -0.09279579669237137, 0.0809524804353714, -0.1701340526342392, -0.05319061875343323, 0.007792395073920488, 0.02332833968102932, 0.03242192417383194, 0.13836517930030823, 0.02339279279112816, -0.04223424196243286, 0.1726204752922058, -0.08304250985383987, 0.03114316798746586, 0.0654907375574112, 0.10751675069332123, 0.1754852831363678, -0.15447036921977997, -0.026119671761989594, 0.16189275681972504, -0.1107250526547432, 0.08814578503370285, -0.038017015904188156, 0.0031461932230740786, 0.14628449082374573, -0.08491941541433334, -0.17576374113559723, 0.17004463076591492, 0.09522949159145355, -0.015491293743252754, 0.06230168044567108, -0.1639462560415268, 0.15375247597694397, 0.11746711283922195, 0.08460608869791031, 0.17077688872814178, -0.10111099481582642, 0.10138474404811859, -0.13704198598861694, -0.10211613774299622, -0.012753061018884182, -0.17205090820789337, 0.08035987615585327, 0.1689567118883133, 0.06468918919563293, -0.15922899544239044, -0.0714343935251236, 0.07731124758720398, -0.02806149050593376, -0.0534798689186573, -0.14069901406764984, -0.0652775838971138, -0.05092235282063484, 0.10570473968982697, -0.06346108019351959, -0.12451954931020737, -0.007644376717507839, 0.04431943595409393, 0.0983176976442337, 0.04021573066711426, -0.1468767374753952, -0.10144412517547607, -0.10572725534439087, 0.007984964177012444, 0.1064448207616806, 0.16994181275367737, 0.15398724377155304, 0.16498549282550812, 0.13896039128303528, 0.02269899472594261, -0.1190493181347847, 0.1483723670244217, -0.14090682566165924, 0.1037907674908638, 0.1166861355304718, 0.17132951319217682, 0.0040350016206502914, 0.13273732364177704, 0.1672758311033249, 0.17260099947452545, 0.06205378472805023, -0.0958976224064827, 0.055626314133405685, 0.12445896118879318, 0.023847004398703575, -0.07517233490943909, 0.08615412563085556, 0.04975707828998566, -0.023299233987927437, 0.08412325382232666, -0.09126217663288116, -0.0669366791844368, 0.028534429147839546, 0.0858243778347969, 0.023587973788380623, -0.030111189931631088, -0.16933047771453857, -0.1499205082654953, 0.06398133188486099, 0.06015949323773384, 0.03228723630309105, -0.08812687546014786, -0.02603057399392128, 0.00796505156904459, -0.16263270378112793, -0.0379241444170475, -0.14233297109603882, -0.1255720555782318, 0.08185932785272598, -0.03504583239555359, 0.10299186408519745, 0.07475368678569794, -0.07943974435329437, -0.11903118342161179, 0.08834300935268402, 0.10536476969718933, 0.05456430837512016, -0.1165277436375618, -0.17542387545108795, -0.09571343660354614, -0.0911685898900032, 0.048366498202085495, 0.06457139551639557, -0.025074968114495277, 0.005530827213078737, 0.0861419215798378, -0.0823679268360138, -0.038994330912828445, 0.05576646700501442, 0.055465470999479294, -0.10034924000501633, 0.0017641927115619183, -0.14767642319202423, -0.11443141102790833, -0.12956112623214722, 0.08270378410816193, -0.16697745025157928, 0.04421304911375046, 0.14791621267795563, -0.09408541023731232, -0.15527498722076416, 0.024237951263785362, 0.05950549244880676, 0.0508706271648407, 0.13802430033683777, -0.004615995567291975, -0.1021391749382019, 0.04722657799720764, 0.03439688682556152, 0.05493893846869469, -0.15800254046916962, 0.05310199782252312, -0.04576617479324341, 0.1456056535243988, -0.15308821201324463, 0.05957026779651642, 0.08169382810592651, -0.12015429884195328, -0.0323941633105278, -0.11664781719446182, -0.12765319645404816, 0.17428313195705414, 0.04499978572130203, 0.15066546201705933, -0.06825027614831924, 0.07077618688344955, -0.10629406571388245, 0.10291554033756256, -0.042303893715143204, 0.010380996391177177, 0.14256048202514648, -0.03771255910396576, 0.06844121962785721, -0.06515982747077942, 0.02286641113460064, -0.13442526757717133, -0.14234736561775208, 0.1397690325975418, -0.01967787928879261, 0.11488041281700134, 0.13388901948928833, -0.1529453843832016, 0.020954133942723274, -0.06981364637613297, 0.022972939535975456, -0.12326240539550781, -0.10205628722906113, 0.09409427642822266, -0.11298399418592453, -0.07595723867416382, 0.14416469633579254, 0.0673711970448494, 0.1324480175971985, 0.1668931245803833, 0.1407022774219513, -0.04144741967320442, -0.032344043254852295, 0.11343400180339813, -0.07702188193798065, 0.06855478882789612, -0.10065017640590668, 0.16158902645111084, 0.013780500739812851, -0.1424812525510788, 0.15197907388210297, 0.15423446893692017, -0.1594216674566269, 0.0667266845703125, 0.04348984360694885, -0.16302576661109924, 0.12612229585647583, 0.035422783344984055, -0.05318363755941391, -0.11944684386253357, -0.05772764980792999, -0.0458497628569603, -0.015110212378203869, -0.12040283530950546, 0.09562542289495468, -0.03813304379582405, -0.14764992892742157, -0.17614363133907318, -0.09136772155761719, 0.02192682959139347, -0.14346984028816223, 0.07811927795410156, 0.0045550125651061535, 0.07090291380882263, 0.018930019810795784, 0.0334562212228775, -0.06291520595550537, 0.06478378921747208, -0.03794921189546585, -0.1516379565000534, 0.1437252014875412, 0.10625836253166199, 0.062293484807014465, -0.1226666122674942, 0.06658589094877243, -0.08520437031984329, 0.1288590282201767, -0.062140364199876785, 0.15995502471923828, 0.0564248152077198, -0.15115773677825928, -0.016963327303528786, 0.12381497025489807, 0.1714610457420349, 0.15888750553131104, -0.04803980886936188, -0.02418932132422924, 0.01939856819808483, -0.16206912696361542, 0.07419256120920181, -0.09153170138597488, -0.14404714107513428, -0.1126566007733345, -0.004385758191347122, -0.06560654193162918, 0.06146857887506485, 0.11968045681715012, 0.1466110199689865, -0.014935986138880253, -0.17554104328155518, 0.017029378563165665, -0.07529561966657639, 0.02526196464896202, 0.07075532525777817, -0.04926704987883568, -0.09621615707874298, 0.13852357864379883, -0.10023637115955353, -0.07064524292945862, 0.049582090228796005, -0.15586571395397186, -0.03406188264489174, 0.15982307493686676, 0.10630092769861221, 0.16652829945087433, -0.07423833757638931, -0.06753616780042648, -0.11297919601202011, -0.0871831625699997, 0.04693987965583801, -0.053457584232091904, 0.10272906720638275, 0.10821111500263214, -0.06232330575585365, -0.054033201187849045, -0.09660749137401581, 0.10869122296571732, -0.009776263497769833, 0.11517219990491867, -0.15348555147647858, -0.13103781640529633, -0.07930417358875275, 0.04052210971713066, 0.09317809343338013, 0.03722013160586357, -0.11265318095684052, -0.14092886447906494, 0.089331716299057, -0.14268477261066437, 0.12192903459072113, 0.021064545959234238, -0.03994447737932205, 0.02394249476492405, 0.09848057478666306, -0.1624700427055359, 0.16415606439113617, -0.1703687459230423, -0.10908806324005127, 0.008450670167803764, -0.06841972470283508, 0.09360767900943756, -0.12782172858715057, 0.00043534906581044197, 0.09653395414352417, 0.12639479339122772, -0.06956952810287476, -0.0036435043439269066, -0.1575450897216797, -0.007944502867758274, 0.014006640762090683, 0.016110185533761978, -0.15983319282531738, -0.05039556697010994, -0.1380762904882431, 0.006088205613195896, 0.02863370068371296, 0.12474091351032257, -0.10165341943502426, 0.041178010404109955, -0.09649759531021118, 0.15899759531021118, -0.04180002585053444, 0.07576584070920944, -0.01137454528361559, -0.034872062504291534, -0.07451596111059189, -0.0006971557741053402, -0.0857049971818924, 0.026424137875437737, -0.07676658034324646, -0.16651149094104767, 0.11879299581050873, -0.015579946339130402, -0.1404021680355072, 0.08302801847457886, 0.15346930921077728, -0.06701838970184326, 0.11268868297338486, -0.08674965053796768, -0.07107876241207123, 0.08866700530052185, -0.05779193714261055, 0.00965879112482071, -0.0367712676525116, 0.1750335842370987, -0.15803682804107666, -0.013176815584301949, 0.08740486204624176, 0.14146968722343445, 0.01665690541267395, -0.15084923803806305, -0.16559767723083496, -0.15392793715000153, -0.035748474299907684, 0.1590784788131714, 0.11056559532880783, 0.16805711388587952, -0.1265774518251419, -0.04865830019116402, -0.1006532609462738, 0.07394767552614212, -0.09409712255001068, -0.012743838131427765, -0.14847029745578766, 0.07329188287258148, 0.054375115782022476, 0.15944324433803558, 0.04157125577330589, 0.056242261081933975, 0.15003542602062225, -0.08268053829669952, -0.16251732409000397, 0.1718057096004486, 0.09412839263677597, 0.09296904504299164, -0.019262367859482765, -0.16807711124420166, -0.11680448800325394, 0.08553273230791092, 0.04975027218461037, 0.05465512350201607, -0.045781586319208145, -0.1635008007287979, 0.012095741927623749, 0.02518710307776928, -0.013204825110733509, -0.056083522737026215, 0.04810405150055885, -0.04691953584551811, -0.10943582653999329, 0.14650700986385345, 0.061330538243055344, 0.029549377039074898, 0.16511991620063782, -0.1238861158490181, 0.12740281224250793, 0.14676664769649506, -0.03890548273921013, 0.1722971498966217, 0.14485076069831848, 0.006020743399858475, 0.009923470206558704, 0.16314874589443207, -0.16303639113903046, -0.10952071100473404, 0.1346888691186905, -0.09364350140094757, -0.03320466727018356, 0.14721834659576416, 0.05331616476178169, -0.10270305722951889, 0.10395199060440063, -0.011694926768541336, 0.05053430795669556, -0.029006266966462135, 0.09853290021419525, -0.030833100900053978, 0.12286204844713211, -0.03716419264674187, 0.08873260766267776, 0.11580297350883484, 0.09910377860069275, -0.08380008488893509, 0.08542735129594803, 0.08925550431013107, 0.04620351642370224, 0.16904884576797485, 0.06911643594503403, 0.10097584873437881, 0.1291554719209671, -0.1379328817129135, 0.036708272993564606, -0.06415393203496933, 0.08490431308746338, 0.16848094761371613, 0.10200700163841248, 0.15855509042739868, 0.05526405945420265, -0.01978152059018612, 0.1485462188720703, -0.14462701976299286, -0.0139134107157588, 0.10634712874889374, 0.11768694221973419, 0.08580601960420609, 0.06673586368560791, 0.13756123185157776, 0.12203290313482285, -0.02089402638375759, -0.0624275878071785, -0.11844835430383682, 0.06206704303622246, -0.0790674164891243, 0.08226639032363892, -0.07314359396696091, -0.1253543496131897, 0.03400138020515442, -0.1508520245552063, 0.1373651623725891, -0.059033505618572235, 0.008794854395091534, 0.0773027166724205, 0.006246743258088827, 0.034287530928850174, 0.07853229343891144, -0.019623560830950737, 0.1101309284567833, -0.02109045535326004, 0.07604188472032547, -0.04761065915226936, 0.07355443388223648, -0.10809879004955292, 0.16834406554698944, -0.16596242785453796, 0.12239666283130646, 0.010280351154506207, -0.012243633158504963, -0.10301635414361954, -0.017398184165358543, 0.12303119897842407, -0.013364912010729313, 0.14987406134605408, 0.07902988791465759, -0.06414692103862762, -0.09398623555898666, 0.027737703174352646, 0.016247330233454704, 0.14885085821151733, -0.1598660796880722, 0.14481835067272186, 0.10501636564731598, 0.08425033092498779, -0.17221614718437195, 0.0504961721599102, -0.00873902253806591, -0.07787515968084335, 0.08487144112586975, 0.11937659978866577, 0.027006670832633972, -0.09610655903816223, -0.0076090265065431595, -0.12258248776197433, -0.0640476867556572, 0.0458032563328743, -0.15424302220344543, -0.006729374174028635, -0.04126111418008804, 0.060508981347084045, 0.09191679209470749, -0.1746530681848526, -0.10086346417665482, 0.029257671907544136, -0.1723787486553192, -0.100993812084198, 0.163402259349823, -0.1151721403002739, -0.1695515364408493, -0.13359789550304413, 0.0463595949113369, -0.046347763389348984, -0.1035989373922348, -0.03863969445228577, 0.1045885682106018, -0.11615322530269623, 0.14306233823299408, -0.14751334488391876, 0.12483149766921997, -0.14748911559581757, -0.08440835773944855, 0.02889304980635643, 0.0019802420865744352, -0.03222595527768135, -0.10336029529571533, -0.15081557631492615, 0.1765785962343216, -0.1728477030992508, -0.12160824239253998, 0.013491502031683922, -0.11818511039018631, -0.04435301944613457, -0.06552682816982269, 0.06166668236255646, -0.009807094931602478, -0.11458313465118408, 0.07683271169662476, -0.12032803148031235, 0.05572029948234558, 0.04273831099271774, -0.1325242966413498, -0.07921241968870163, -0.11498495191335678, -0.1298622041940689, -0.08212457597255707, -0.12904304265975952, -0.06722401827573776, 0.005223733838647604, -0.11658339947462082, -0.10904191434383392, -0.025648629292845726, 0.127179816365242, 0.004751898813992739, -0.14032842218875885, -0.07383915036916733, 0.07142005115747452, -0.07527610659599304, 0.04582219198346138, -0.15935935080051422, 0.015832161530852318, 0.15197928249835968, -0.06763826310634613, 0.13822363317012787, -0.10398267954587936, 0.1666785180568695, -0.073407843708992, 0.046626027673482895, 0.16373878717422485, -0.13656018674373627, 0.08278289437294006, -0.12317780405282974, 0.00568422582000494, -0.10972396284341812, -0.1258920133113861, -0.01728612370789051, -0.08511414378881454, -0.028592146933078766, 0.09579120576381683, -0.004830302204936743, 0.12873314321041107, 0.05237523838877678, 0.09114006906747818, 0.055903106927871704, 0.1295849233865738, -0.11898516863584518, 0.11625310778617859, -0.021404871717095375, -0.042911455035209656, -0.10050184279680252, -0.1739102005958557, 0.1416686326265335, -0.12150444090366364, 0.1088959127664566, 0.12445077300071716, 0.04211282357573509, -0.09833797067403793, 0.10680162161588669, -0.022724654525518417, -0.0722709447145462, -0.1768527328968048, 0.030215084552764893, 0.15318648517131805, 0.13862450420856476, -0.08817309141159058, -0.16761671006679535, 0.003566881874576211, -0.12285637855529785, -0.028967872262001038, 0.01849089376628399, 0.10769737511873245, -0.100986547768116, 0.1262052059173584, 0.1306563764810562, 0.000997656024992466, 0.0014805190730839968, -0.06024719402194023, -0.15884074568748474, 0.06016286090016365, -0.13020865619182587, 0.1411369889974594, -0.10461289435625076, 0.07874003797769547, 0.08147241920232773, -0.1761903166770935, 0.13428546488285065, -0.1712915450334549, 0.02747325599193573, -0.0385453999042511, -0.14975279569625854, -0.141941636800766, -0.13858400285243988, -0.13681191205978394, -0.05847238004207611, -0.05866586044430733, 0.05953254923224449, -0.12664823234081268, -0.01024601235985756, -0.13278993964195251, -0.17164723575115204, -0.02578376978635788, 0.08349379897117615, 0.006777169182896614, 0.13442666828632355, -0.06868025660514832, 0.10006177425384521, -0.11990699172019958, -0.11468875408172607, 0.0280134379863739, 0.12650500237941742, -0.13411739468574524, -0.17404748499393463, -0.06815707683563232, 0.010196437127888203, -0.08309917896986008, -0.031993988901376724, -0.1361159235239029, -0.15026341378688812, -0.13020215928554535, -0.16441644728183746, -0.006691538728773594, -0.14980186522006989, 0.09358175843954086, -0.14929459989070892, -0.11138670891523361, -0.009927242994308472, 0.031058333814144135, -0.018884729593992233, 0.12957128882408142, -0.15267732739448547, 0.04207887873053551, -0.09903927147388458, 0.15930238366127014, 0.14542242884635925, -0.046952929347753525, -0.17551091313362122, -0.028056513518095016, 0.14017729461193085, 0.012837057001888752, -0.13370195031166077, 0.13141119480133057, -0.17561663687229156, -0.060574889183044434, 0.14309866726398468, -0.1393168866634369, 0.0500878281891346, 0.05283914506435394, 0.1448521912097931, -0.1265261173248291, 0.06707558035850525, 0.0788234993815422, 0.1369108408689499, -0.07045803219079971, 0.022311704233288765, 0.1602546125650406, -0.0009308006847277284, -0.05706651136279106, -0.1035081148147583, -0.014300352893769741, 0.042257584631443024, 0.01043529063463211, -0.14457528293132782, 0.07893884181976318, 0.08461945503950119, 0.04252242296934128, 0.10777898877859116, -0.002725067315623164, -0.1226615384221077, 0.08297249674797058, 0.060092855244874954, -0.0684928297996521, 0.11262064427137375, 0.11084966361522675, -0.12077731639146805, -0.018784502521157265, 0.10590431839227676, 0.1059119701385498, 0.0799725353717804, 0.10395180433988571, 0.05691482499241829, 0.039286158978939056, -0.13643446564674377, -0.13532806932926178, -0.026952039450407028, 0.018284810706973076, -0.018884751945734024, 0.02240142412483692, -0.09840740263462067, 0.022609766572713852, 0.12553712725639343, -0.17298418283462524, 0.03642618656158447, -0.09138751775026321, 0.13790187239646912, -0.005613480694591999, -0.1235215961933136, 0.06964776664972305, 0.13120776414871216, 0.014027989469468594, -0.13986538350582123, 0.04956885799765587, 0.13863401114940643, 0.03804054111242294, -0.029400039464235306, 0.1525922566652298, -0.019901521503925323, -0.14954043924808502, 0.014844279736280441, 0.12276240438222885, -0.14508025348186493, 0.039499685168266296, 0.05671700835227966, 0.11294498294591904, 0.00902834814041853, -0.01940784603357315, -0.011329601518809795, -0.13704635202884674, -0.06658166646957397, 0.11944851279258728, -0.009749012999236584, -0.11140017211437225, -0.0063735381700098515, -0.05459131300449371, -0.05125121399760246, -0.1035861223936081, 0.1106000617146492, -0.08383142948150635, -0.15285246074199677, -0.07631389796733856, -0.005980571731925011, -0.0903933048248291, 0.07212316244840622, 0.1599649339914322, -0.09050963073968887, 0.10851091891527176, 0.04421986639499664, 0.08494401723146439, -0.0753411129117012, -0.10110000520944595, -0.15648429095745087, 0.035113003104925156, 0.046187624335289, 0.026124989613890648, -0.08436976373195648, -0.12597046792507172, -0.12306530773639679, 0.01787462830543518, 0.10085054486989975, 0.07378296554088593, -0.11314418166875839, 0.1648135632276535, 0.12119272351264954, -0.1034693643450737, 0.02689153514802456, 0.056893955916166306, 0.10457556694746017, -0.13235414028167725, -0.0317593477666378, -0.16001977026462555, -0.0738934800028801, -0.10259313881397247, 0.05670781433582306, 0.12403755635023117, -0.16661320626735687, 0.07314709573984146, 0.1513717621564865, 0.1650051474571228, -0.04484577104449272, -0.16925375163555145, 0.088675357401371, 0.08068230003118515, 0.16793261468410492, 0.13258510828018188, 0.005779024679213762, 0.11879279464483261, 0.015918811783194542, 0.16776221990585327, -0.09307167679071426, -0.04981939122080803, 0.1694813370704651, -0.01730770617723465, -0.11593380570411682, -0.17416173219680786, -0.0016234505455940962, 0.15567916631698608, 0.1150817945599556, 0.15470245480537415, 0.12984813749790192, -0.07016881555318832, -0.06583759188652039, 0.027524245902895927, 0.00312067661434412, 0.03336259350180626, 0.012069014832377434, 0.12448885291814804, -0.006518811918795109, 0.16468846797943115, 0.029821068048477173, 0.17102527618408203, 0.08928502351045609, 0.04204586148262024, 0.14216718077659607, 0.06182152405381203, 0.12414699047803879, -0.13666343688964844, -0.11387374997138977, -0.09394954144954681, -0.06279019266366959, 0.16541148722171783, 0.0702969878911972, -0.1288480907678604, 0.054426904767751694, 0.09082918614149094, -0.10554761439561844, -0.13182476162910461, 0.14265301823616028, 0.08201505988836288, 0.16683870553970337, -0.05798674374818802, -0.13041847944259644, -0.1031033992767334, 0.09912683069705963, -0.021447569131851196, 0.14608141779899597, -0.07371113449335098, 0.0032244413159787655, 0.17307692766189575, -0.06988906860351562, 0.12206543982028961, 0.09835270047187805, 0.15615785121917725, 0.12277335673570633, 0.011615244671702385, 0.16377303004264832, 0.12328578531742096, -0.08217836171388626, -0.032586634159088135, -0.12670083343982697, 0.06904375553131104, -0.046502307057380676, -0.07689250260591507, -0.02162373624742031, 0.17655682563781738, -0.0786028578877449, 0.07502228021621704, -0.15342974662780762, -0.03542965278029442, -0.025891326367855072, 0.0873868316411972, -0.06450557708740234, 0.12324044108390808, 0.013885324820876122, 0.14823602139949799, 0.12327726930379868, -0.01927264779806137, 0.019382748752832413, 0.16326576471328735, -0.02247532270848751, -0.011671001091599464, -0.07995467633008957, 0.04171185567975044, -0.07635409384965897, -0.16049641370773315, 0.045635588467121124, 0.03217229247093201, -0.010683360509574413, -0.05215271934866905, 0.08443363755941391, 0.16377399861812592, -0.054379235953092575, 0.1241927370429039, -0.1043601781129837, -0.01033446379005909, 0.01414793822914362, 0.0009089669329114258, 0.10548342019319534, -0.06467898190021515, -0.057794246822595596, -0.09941277652978897, 0.035632602870464325, 0.14127160608768463, -0.02368965931236744, 0.1562861204147339, -0.10774936527013779, -0.07690415531396866, 0.1460666060447693, -0.1579139530658722, 0.03661395609378815, -0.0752762034535408, -0.054764486849308014, 0.14809685945510864, -0.15880714356899261, 0.05749067664146423, 0.06585872173309326, -0.14499227702617645, 0.16121236979961395, 0.04591301456093788, 0.031322628259658813, -0.1408054530620575, 0.14663662016391754, -0.11873180419206619, -0.13524743914604187, 0.07366352528333664, 0.16055095195770264, -0.004782185889780521, 0.07528235018253326, -0.002404792932793498, 0.11236514151096344, -0.11078637093305588, 0.13633829355239868, 0.14941759407520294, -0.10452774912118912, -0.0031840612646192312, 0.156314417719841, -0.06758526712656021, 0.17291612923145294, 0.06385292112827301, -0.048374563455581665, -0.06861712783575058, -0.059216782450675964, 0.04762803763151169, 0.1642087996006012, -0.1105220764875412, -0.09445193409919739, 0.0876171663403511, 0.09152750670909882, 0.11658541858196259, 0.011053436435759068, 0.13617298007011414, 0.12668290734291077, 0.008661679923534393, 0.024986859411001205, 0.0023539219982922077, -0.12294553965330124, 0.1000739261507988, -0.05202355235815048, 0.11050676554441452, -0.11664964258670807, -0.08121836930513382, -0.12464923411607742, -0.12140009552240372, 0.08347631990909576, -0.08559320122003555, -0.1445664018392563, -0.12530401349067688, -0.16686774790287018, 0.08459474891424179, 0.08925400674343109, -0.07713842391967773, -0.12490673363208771, -0.1670382171869278, -0.07494577765464783, -0.15411579608917236, 0.07466364651918411, 0.13139675557613373, -0.15282398462295532, -0.0005063873250037432, -0.11282838135957718, -0.058589693158864975, -0.019509244710206985, -0.10849270224571228, -0.06079684942960739, -0.15541709959506989, 0.0031764409504830837, -0.045544467866420746, -0.07872029393911362, 0.11304889619350433, 0.09550049155950546, 0.174494668841362, 0.08728327602148056, 0.11411934345960617, -0.1248558834195137, 0.09201768040657043, 0.026411425322294235, -0.10336171090602875, 0.04799451678991318, -0.003027321072295308, 0.17429281771183014, -0.13190147280693054, -0.17040376365184784, -0.0666540339589119, 0.1203291118144989, 0.13430653512477875, -0.09047012031078339, -0.08924555033445358, 0.013660605996847153, 0.06474360823631287, 0.042342059314250946, -0.14438287913799286, -0.14089486002922058, 0.09326782822608948, 0.06017891317605972, 0.1435742974281311, 0.1341162472963333, 0.1365729123353958, -0.03500131145119667, -0.08417198807001114, 0.12231875956058502, -0.06586550176143646, 0.11060599982738495, 0.09042585641145706, -0.11893216520547867, -0.14618097245693207, 0.021899640560150146, 0.07578832656145096, 0.05178523808717728, -0.02046799100935459, -0.08809079974889755, -0.10996859520673752, -0.04118862748146057, 0.13597720861434937, 0.10808990150690079, 0.01973535493016243, -0.14567163586616516, -0.09217578917741776, -0.15799997746944427, 0.02718992717564106, -0.08782268315553665, -0.15343506634235382, 0.06912984699010849, 0.10193127393722534, 0.03782724589109421, 0.03798218071460724, -0.0254103634506464, 0.07254815846681595, 0.1495162546634674, -0.16054916381835938, 0.13618673384189606, -0.003886622143909335, -0.13903091847896576, -0.03833084553480148, -0.070291668176651, 0.04850248992443085, 0.03246942535042763, 0.05500570312142372, 0.08087298274040222, 0.13622711598873138, 0.1711122691631317, -0.018949948251247406, -0.10295335948467255, 0.15180018544197083, 0.019561562687158585, 0.09589359164237976, 0.018857475370168686, 0.17460721731185913, -0.1386786848306656, 0.01852690987288952, 0.15024185180664062, -0.045528803020715714, -0.1342395395040512, -0.11276020854711533, -0.12159242480993271, 0.025741776451468468, 0.01934751868247986, 0.09712541103363037, 0.08900221437215805, -0.07212496548891068, -0.037947025150060654, -0.10576016455888748, -0.07450419664382935, -0.15991893410682678, -0.06025131791830063, -0.16763798892498016, -0.13241435587406158, 0.004297924228012562, -0.058485809713602066, -0.03523777797818184, -0.16570265591144562, -0.08485635370016098, -0.010407750494778156, 0.14790131151676178, -0.17653334140777588, 0.1558627039194107, -0.11132066696882248, 0.03316129371523857, 0.13854637742042542, 0.030535586178302765, -0.06592082232236862, -0.13902686536312103, 0.041993241757154465, 0.011932014487683773, 0.1542450487613678, 0.12079133838415146, 0.02863174118101597, 0.03279724344611168, -0.07735764980316162, -0.07484006881713867, 0.04233504459261894, -0.05570034682750702, 0.05430739000439644, -0.1558665931224823, -0.08892478048801422, -0.15153270959854126, -0.0538000650703907, -0.1353442370891571, 0.058023013174533844, -0.14177174866199493, -0.14943015575408936, -0.06591356545686722, 0.16608048975467682, 0.1130434051156044, 0.06898892670869827, 0.0050034592859447, 0.06387478858232498, -0.15548250079154968, 0.1583203375339508, -0.17678587138652802, -0.004379513673484325, -0.10910380631685257, -0.1737731546163559, 0.16984888911247253, 0.08826497197151184, 0.13658155500888824, -0.16369247436523438, 0.09136282652616501, 0.044819459319114685, -0.15119433403015137, -0.16927677392959595, -0.008254151791334152, 0.05113917589187622, -0.023130103945732117, -0.1695355921983719, -0.09518362581729889, -0.0595313124358654, 0.014810562133789062, 0.06753987073898315, -0.1401975154876709, -0.01078825443983078, -0.09074582159519196, 0.04791515693068504, -0.14854322373867035, 0.015463451854884624, -0.07875809818506241, -0.03723801299929619, 0.11533354967832565, 0.01174606941640377, -0.09979995340108871, 0.08700834959745407, -0.1369849443435669, -0.05262593552470207, -0.004478657152503729, -0.02051306515932083, 0.14442507922649384, 0.016515374183654785, -0.16826289892196655, 0.08687513321638107, -0.07687205821275711, 0.016940129920840263, -0.07090182602405548, -0.14594092965126038, 0.008337105624377728, -0.00652498472481966, 0.06758371740579605, 0.16379167139530182, 0.1415857970714569, 0.017236633226275444, -0.04483106732368469, -0.15108025074005127, -0.09018589556217194, 0.1325169801712036, -0.004943368956446648, -0.025109512731432915, 0.02003009431064129, -0.090248242020607, -0.1466522365808487, -0.012523343786597252, -0.13744741678237915, 0.07192754745483398, -0.022851452231407166, -0.16701439023017883, -0.14085833728313446, -0.020095963031053543, 0.04661153256893158, -0.04399536922574043, 0.14835107326507568, 0.14879043400287628, -0.022571753710508347, -0.07461351156234741, 0.006777766160666943, -0.13422651588916779, 0.14618287980556488, -0.11474207043647766, 0.07350984215736389, -0.1356889307498932, -0.15498632192611694, -0.030480794608592987, 0.13565222918987274, -0.07104576379060745, 0.16089759767055511, 0.16181783378124237, -0.06441861391067505, -0.0411871001124382, -0.09427618980407715, -0.11021661758422852, -0.05325453355908394, 0.022116199135780334, 0.030910350382328033, 0.11632351577281952, 0.098781518638134, -0.15638063848018646, -0.12540222704410553, -0.1111440509557724, 0.13034296035766602, 0.04741881042718887, -0.0437583290040493, -0.16532129049301147, -0.10838102549314499, 0.12401621788740158, 0.05385580658912659, 0.09398875385522842, 0.12570911645889282, -0.10807757079601288, -0.09576984494924545, 0.08267995715141296, -0.11695288866758347, -0.15772514045238495, 0.13945533335208893, 0.11123353242874146, 0.06422077864408493, -0.10509513318538666, -0.053277622908353806, 0.12586510181427002, -0.05916484072804451, 0.05259989574551582, 0.02438485436141491, -0.09296731650829315, 0.006556050851941109, -0.08466780185699463, -0.012775534763932228, 0.0863729789853096, 0.044852837920188904, 0.0400778092443943, 0.1124628335237503, -0.09506553411483765, -0.12762558460235596, 0.0378413051366806, 0.17570069432258606, 0.06273636966943741, 0.15299810469150543, 0.08611554652452469, -0.014344003051519394, 0.02409397065639496, 0.029192905873060226, -0.06339400261640549, 0.0602053664624691, -0.08936038613319397, -0.17339088022708893, 0.08165286481380463, 0.07097112387418747, 0.09023467451334, 0.03212103992700577, 0.059899210929870605, -0.16864793002605438, -0.09374132007360458, -0.0065006292425096035, -0.03627761825919151, -0.17001193761825562, -0.04775945842266083, 0.1498463749885559, -0.0802278146147728, -0.15052151679992676, 0.10691846907138824, -0.13352419435977936, 0.03979358822107315, 0.11122522503137589, -0.11617417633533478, 0.07784697413444519, 0.035876333713531494, 0.04906764626502991, -0.010691691190004349, -0.13781100511550903, 0.17567604780197144, -0.1125524491071701, 0.17409351468086243, -0.012933540157973766, -0.05044829472899437, 0.029629996046423912, -0.022669268772006035, 0.0916028544306755, 0.15082088112831116, 0.16848428547382355, 0.015994327142834663, -0.08379802107810974, -0.14875228703022003, 0.10439028590917587, -0.05950305983424187, 0.15076565742492676, 0.06798318028450012, -0.03708406537771225, 0.046847209334373474, 0.15906943380832672, -0.00127664755564183, -0.0801197737455368, 0.07151171565055847, -0.12476496398448944, -0.05289094150066376, -0.09839649498462677, -0.1192985475063324, -0.1533704698085785, -0.05064155161380768, 0.07611624896526337, 0.024647563695907593, -0.05764543265104294, -0.04149691388010979, -0.14416763186454773, 0.11996165663003922, 0.1293124258518219, 0.06412430852651596, 0.0007558786310255527, 0.15855368971824646, 0.10269810259342194, -0.0003783168795052916, -0.14713570475578308, -0.10784636437892914, 0.09112454950809479, -0.16727659106254578, -0.17025311291217804, -0.11417389661073685, -0.009842959232628345, -0.09853016585111618, -0.13492532074451447, 0.1393602043390274, 0.0035642236471176147, 0.08390868455171585, 0.0871339961886406, -0.034908685833215714, -0.060456305742263794, -0.012665970250964165, -0.08484336733818054, 0.0661468505859375, -0.15003445744514465, 0.04357486590743065, -0.0340116061270237, 0.09615390747785568, 0.05967734009027481, -0.06990522146224976, 0.03393825888633728, 0.15153667330741882, -0.0673990324139595, 0.1515757441520691, 0.11238100379705429, -0.13137678802013397, -0.06575317680835724, 0.02682703174650669, 0.11047167330980301, 0.06653251498937607, -0.04366358369588852, -0.07244674116373062, 0.08838631957769394, -0.0031900627072900534, 0.03516607731580734, 0.11400578916072845, 0.10845229029655457, -0.09762819856405258, 0.0030844584107398987, -0.004434442613273859, 0.06879325211048126, -0.059244368225336075, 0.04996374249458313, 0.023627761751413345, -0.08897755295038223, -0.10562583059072495, -0.0619184710085392, -0.1706709861755371, -0.07622980326414108, 0.008528860285878181, 0.11243855953216553, 0.0966373011469841, -0.12992553412914276, 0.09396767616271973, 0.09994848072528839, 0.14492127299308777, 0.16274738311767578, -0.1621166467666626, 0.09082402288913727, 0.09847545623779297, 0.09528648108243942, -0.11136822402477264, 0.15118499100208282, 0.0657268613576889, 0.011132835410535336, -0.15066088736057281, 0.09914270788431168, 0.101066455245018, -0.04984763264656067, 0.05189192667603493, -0.10688505321741104, -0.06703498959541321, 0.028003903105854988, 0.024031581357121468, -0.14543765783309937, 0.02103937417268753, 0.17069342732429504, 0.005801740102469921, -0.10163572430610657, 0.014795778319239616, -0.012840859591960907, 0.08777078241109848, -0.007701651658862829, -0.04168293997645378, -0.04148019105195999, -0.01501513086259365, 0.035524141043424606, 0.022385306656360626, 0.03234168887138367, -0.024439914152026176, -0.07607485353946686, -0.052142396569252014, -0.06888758391141891, 0.11908354610204697, -0.004688299726694822, -0.16291280090808868, 0.04024859517812729, -0.08922629803419113, -0.13066816329956055, -0.03166314586997032, -0.12703756988048553, -0.09805157035589218, 0.11253698170185089, -0.1559523493051529, 0.14305849373340607, 0.05870972201228142, -0.0772484615445137, 0.02768728882074356, -0.10210621356964111, -0.08780829608440399, 0.10355351865291595, 0.16922535002231598, -0.0976349487900734, -0.043829236179590225, -0.08380885422229767, 0.14149144291877747, 0.05548882856965065, -0.07591579109430313, -0.14246796071529388, -0.059297826141119, 0.009899591095745564, 0.14893436431884766, 0.11164084076881409, 0.05836225301027298, 0.16404204070568085, -0.026960449293255806, -0.1214611753821373, -0.09463777393102646, -0.03950567916035652, -0.11585777252912521, 0.13814963400363922, -0.028713487088680267, -0.10170590877532959, 0.09091585129499435, -0.11463657766580582, -0.014620477333664894, -0.09374566376209259, -0.17340867221355438, -0.10643386840820312, -0.07708112895488739, -0.012128867208957672, 0.13207633793354034, 0.16792364418506622, 0.15624824166297913, 0.12155143171548843, -0.05529941990971565, -0.015007907524704933, -0.13112914562225342, -0.014963919296860695, 0.029187675565481186, -0.10995212197303772, 0.03923177346587181, -0.15155074000358582, 0.17117135226726532, -0.1491091102361679, -0.0899866595864296, 0.16799530386924744, -0.11856544017791748, -0.00269884942099452, -0.10614003986120224, 0.061731722205877304, -0.07482104748487473, 0.10426834970712662, 0.053963109850883484, -0.016234757378697395, -0.07654988765716553, -0.15139895677566528, 0.09920130670070648, 0.11602247506380081, -0.17246583104133606, -0.0440489798784256, 0.09845821559429169, 0.0372694656252861, 0.07709968090057373, 0.007578011602163315, -0.12404444813728333, -0.03830958530306816, 0.13933593034744263, 0.051201507449150085, 0.05334862321615219, -0.12941040098667145, -0.1395978182554245, -0.015113335102796555, -0.05737118795514107, 0.17217187583446503, 0.07028855383396149, -0.003902218071743846, 0.16809692978858948, -0.16399765014648438, -0.03864584118127823, 0.10254828631877899, 0.09156683832406998, -0.003746021306142211, -0.1760801374912262, 0.031099319458007812, -0.16150039434432983, -0.039486221969127655, -0.029084140434861183, -0.1438778191804886, 0.07457474619150162, -0.14214381575584412, 0.1044478490948677, 0.11577363312244415, 0.11687565594911575, 0.17596350610256195, -0.06279133260250092, 0.07067583501338959, -0.11797711998224258, 0.09549717605113983, -0.035440828651189804, 0.13549302518367767, -0.06560826301574707, -0.021301086992025375, -0.02992049604654312, 0.14370150864124298, 0.08080296963453293, -0.12986190617084503, -0.08085525035858154, 0.12029270827770233, 0.00478834193199873, -0.01496859546750784, 0.13441102206707, -0.00510117132216692, 0.023137543350458145, 0.11059492081403732, -0.05645927041769028, -0.16972067952156067, -0.06847818195819855, 0.14497226476669312, -0.02173660509288311, -0.08691088110208511, 0.015467029996216297, -0.14262273907661438, 0.0830492451786995, -0.17125414311885834, -0.15254096686840057, -0.12621042132377625, 0.012299238704144955, 0.1601814180612564, -0.016588954254984856, 0.11264592409133911, -0.17488020658493042, 0.041141804307699203, 0.1350921392440796, -0.06339461356401443, 0.08074235171079636, -0.02981415204703808, 0.17029990255832672, -0.04523099213838577, -0.025754380971193314, -0.10579134523868561, -0.04729193449020386, 0.1660008430480957, -0.1490146517753601, -0.006947252433747053, 0.08561321347951889, -0.09899655729532242, 0.15596316754817963, -0.00537092937156558, -0.1005198135972023, 0.10604789108037949, 0.09817153215408325, -0.1465425044298172, -0.019096041098237038, -0.06428622454404831, -0.04983051121234894, 0.16809521615505219, -0.08721815049648285, -0.09801242500543594, 0.13274569809436798, -0.16115586459636688, 0.13903290033340454, -0.06146317720413208, 0.1442120373249054, -0.029473895207047462, 0.027186911553144455, 0.04255177080631256, 0.038290251046419144, -0.1760125309228897, 0.11869361251592636, 0.15420223772525787, 0.13450521230697632, 0.13740962743759155, -0.028966128826141357, 0.10669836401939392, 0.16102397441864014, 0.16140910983085632, -0.1011400893330574, -0.09263821691274643, -0.14575281739234924, 0.11173897236585617, 0.11074879765510559, -0.07161543518304825, -0.0058608525432646275, -0.07417906820774078, 0.04558819904923439, -0.1408347487449646, -0.1093084067106247, -0.11647163331508636, -0.04894905909895897, -0.10881142318248749, -0.0007398456800729036, -0.1582787185907364, 0.06960359215736389, 0.12561851739883423, 0.1006602942943573, -0.17501558363437653, 0.11231119185686111, 0.024953646585345268, -0.0617959201335907, -0.035649824887514114, 0.14141762256622314, -0.10939422994852066, -0.04034149646759033, 0.02890433929860592, 0.13062097132205963, 0.07563665509223938, 0.17363350093364716, 0.039020098745822906, 0.09883320331573486, -0.12976934015750885, 0.13755495846271515, -0.0964997261762619, -0.01715679280459881, -0.08889194577932358, 0.17313304543495178, -0.04449226334691048, 0.06825914233922958, 0.09902521967887878, 0.037461914122104645, -0.08799747377634048, 0.15443819761276245, -0.05670386552810669, -0.16572491824626923, 0.06924175471067429, -0.1171598806977272, -0.034220028668642044, 0.10792168974876404, -0.139937624335289, -0.07196301221847534, -0.14383569359779358, 0.09992077201604843, -0.16082550585269928, -0.029332425445318222, -0.0617552287876606, -0.1395851969718933, -0.14963017404079437, -0.1626143753528595, 0.10689279437065125, 0.15653711557388306, 0.1324607878923416, -0.15951567888259888, 0.13177667558193207, 0.14316564798355103, 0.11476847529411316, -0.1379292905330658, 0.058870550245046616, -0.08837609738111496, -0.16385650634765625, -0.07804135978221893, 0.024616345763206482, 0.01368420384824276, 0.0807647854089737, 0.1668533980846405, 0.037093810737133026, 0.022694315761327744, -0.10366127640008926, 0.04134780168533325, 0.04575983062386513, -0.07352723926305771, -0.07543157041072845, -0.14718471467494965, 0.09727811068296432, 0.05432353541254997, -0.03695600852370262, 0.005559592042118311, -0.07680311053991318, -0.13218165934085846, 0.17527318000793457, 0.13850337266921997, 0.11819621920585632, -0.1057836040854454, 0.014960281550884247, 0.022289220243692398, -0.15400449931621552, 0.07667723298072815, -0.02921339124441147, -0.04595743864774704, 0.01132394839078188, -0.12325583398342133, -0.139337956905365, 0.15689949691295624, 0.08654497563838959, 0.03935406729578972, -0.0704067051410675, -0.1289142668247223, 0.16187739372253418, -0.04695994779467583, 0.14299586415290833, -0.0023000380024313927, -0.15328241884708405, -0.029505882412195206, 0.10959704220294952, 0.16929283738136292, -0.0189651008695364, 0.01002542581409216, 0.10449402034282684, -0.1236911192536354, 0.15713435411453247, 0.05181281641125679, -0.05674102529883385, 0.07944401353597641, 0.14587749540805817, -0.058960866183042526, 0.12985265254974365, -0.05955531448125839, 0.058367080986499786, -0.07031378895044327, 0.05652156099677086, -0.12345269322395325, -0.022995473816990852, -0.16641946136951447, 0.10257983952760696, 0.1200694739818573, 0.1553015559911728, 0.01814081147313118, 0.14296957850456238, 0.10334423184394836, 0.13103944063186646, -0.1644069254398346, -0.1236206516623497, -0.04062257334589958, 0.016576657071709633, 0.11794111132621765, -0.06883614510297775, -0.01725928671658039, 0.11104259639978409, -0.11186005175113678, -0.07493629306554794, -0.047772545367479324, -0.14259213209152222, 0.1488317996263504, -0.03321118652820587, 0.13560150563716888, -0.05234171822667122, -0.12301597744226456, 0.051092479377985, 0.16863451898097992, 0.07139275968074799, -0.14036448299884796, -0.10251177102327347, -0.04119938239455223, 0.0630204975605011, -0.048942744731903076, -0.1030772477388382, 0.030317751690745354, 0.040572792291641235, -0.05790524184703827, -0.07695288211107254, 0.10647456347942352, -0.12026350945234299, -0.11246712505817413, 0.03158925101161003, 0.09013338387012482, -0.12427730858325958, -0.054284028708934784, -0.14560624957084656, 0.05014200136065483, 0.07057634741067886, -0.1224360540509224, 0.08531754463911057, 0.079010508954525, 0.11466040462255478, -0.1642789989709854, -0.01930082216858864, -0.0558478981256485, 0.16951236128807068, -0.11510556191205978, 0.13049589097499847, 0.05705466493964195, 0.0012336957734078169, 0.05279615521430969, 0.06893599778413773, -0.11484713107347488, 0.04048515856266022, -0.03318585455417633, -0.1005103588104248, -0.04072248563170433, -0.008654448203742504, -0.02411935292184353, -0.026863981038331985, 0.1458338499069214, -0.08406329154968262, 0.022808203473687172, 0.16419772803783417, -0.16594715416431427, -0.03082600235939026, -0.15676574409008026, -0.08669696003198624, -0.08877769112586975, 0.06467559933662415, -0.10152279585599899, -0.02882322669029236, 0.026914596557617188, -0.10406439006328583, 0.16779977083206177, 0.004832574166357517, 0.13651026785373688, -0.07984473556280136, -0.018864817917346954, -0.04490979388356209, -0.004015271086245775, 0.048224981874227524, 6.0717720771208405e-05, 0.08191382884979248, -0.10536700487136841, -0.12448769807815552, -0.10548456013202667, -0.12538307905197144, 0.08757802098989487, 0.005577634554356337, 0.059010740369558334, -0.17609558999538422, 0.15734784305095673, -0.10692287236452103, 0.16191375255584717, -0.12263429164886475, -0.10046334564685822, 0.17110170423984528, -0.0946410596370697, -0.13064990937709808, 0.006965114269405603, 0.1431206613779068, 0.12988632917404175, -0.06580017507076263, -0.03298824653029442, 0.04212595522403717, -0.07170766592025757, -0.021353747695684433, -0.1428857147693634, -0.022970817983150482, -0.17454247176647186, -0.09217622131109238, 0.07255269587039948, -0.07894423604011536, -0.14995507895946503, -0.07943984866142273, 0.10293763130903244, 0.12832525372505188, -0.01818813942372799, -0.16325563192367554, -0.1621582806110382, 0.022944537922739983, -0.16999684274196625, 0.13215704262256622, 0.10361625999212265, -0.11277277022600174, 0.10027769953012466, -0.1574588119983673, -0.05453003570437431, 0.09016593545675278, 0.14515627920627594, -0.034602709114551544, -0.06768064945936203, 0.0232895165681839, -0.08011748641729355, -0.07483132928609848, -0.03786369040608406, 0.0678759440779686, 0.06912760436534882, 0.12569871544837952, -0.08543558418750763, -0.17279791831970215, -0.07535233348608017, 0.16684725880622864, 0.06749529391527176, -0.15378065407276154, 0.1754942536354065, 0.0846361443400383, 0.16770599782466888, -0.1520715355873108, -0.11202346533536911, 0.11099325120449066, -0.11511386930942535, 0.09909980744123459, -0.04749249294400215, 0.16546332836151123, 0.017259206622838974, -0.07986993342638016, -0.16710463166236877, 0.1707070767879486, 0.034450821578502655, 0.029502594843506813, 0.01852433942258358, 0.08868396282196045, 0.04014362767338753, 0.11387134343385696, 0.1338064819574356, -0.08663090318441391, 0.014257539995014668, -0.17378447949886322, 0.13481983542442322, -0.169951930642128, 0.10521940886974335, 0.10579269379377365, 0.1242235079407692, -0.015716388821601868, -0.12739090621471405, 0.1552465409040451, -0.10496660321950912, 0.03000234253704548, -0.1340765357017517, 0.08887864649295807, 0.10977816581726074, 0.12369906902313232, 0.16253963112831116, -0.12643137574195862, 0.140095517039299, 0.07539509981870651, -0.03774318844079971, -0.06016968935728073, -0.029161319136619568, -0.11323661357164383, 0.07394606620073318, 0.12123358994722366, -0.13327626883983612, 0.02090424858033657, -0.0005990224308334291, 0.10958743840456009, -0.15800601243972778, -0.07144957035779953, -0.17050188779830933, 0.034242670983076096, -0.1407308131456375, -0.016457734629511833, -0.09201496094465256, -0.1591815948486328, 0.1146320328116417, -0.056730467826128006, 0.06313362717628479, -0.08539444953203201, 0.14338737726211548, -0.06004224345088005, -0.07612757384777069, 0.11279827356338501, 0.1561552733182907, -0.0632966011762619, -0.13392868638038635, 0.0125482939183712, -0.16609854996204376, 0.023245731368660927, -0.09284347295761108, -0.16708491742610931, 0.1263987123966217, 0.11834313720464706, -0.12889732420444489, 0.06953123956918716, -0.10336560010910034, 0.17569808661937714, 0.12768898904323578, 0.03671421855688095, 0.0011962689459323883, -0.0635877400636673, 0.0599810965359211, -0.0875258669257164, -0.007612980902194977, 0.1427207887172699, 0.07136915624141693, 0.05018782243132591, 0.0054107303731143475, 0.15092536807060242, -0.17271986603736877, -0.0250555407255888, 0.10730645060539246, 0.17059265077114105, 0.06004156172275543, -0.08453060686588287, 0.013281879015266895, -0.04121915251016617, 0.17533792555332184, -0.04380632936954498, 0.006830738391727209, 0.13599258661270142, -0.14870086312294006, -0.12023895233869553, 0.11406897753477097, -0.05450860410928726, -0.14191116392612457, -0.10841280966997147, -0.023623939603567123, 0.010219522751867771, 0.03565637767314911, -0.05228234827518463, 0.14636118710041046, -0.06949938088655472, -0.09808613359928131, 0.15344655513763428, -0.048861064016819, -0.07427261769771576, 0.04542960971593857, 0.07719135284423828, -0.06732621043920517, 0.17023327946662903, 0.024886712431907654, -0.1254105120897293, -0.12260210514068604, 0.09897025674581528, 0.1740245670080185, -0.005125123076140881, -0.16149012744426727, -0.13845966756343842, -0.17498604953289032, -0.00823370460420847, -0.1768237054347992, 0.1166374534368515, 0.05696497857570648, -0.02329212613403797, -0.17175786197185516, -0.032476477324962616, -0.014249645173549652, -0.0645541399717331, -0.04820689186453819, 0.05299573764204979, -0.14733819663524628, 0.10056048631668091, -0.1533660888671875, 0.009667715057730675, -0.10664825886487961, -0.05145208165049553, -0.12649080157279968, 0.16805197298526764, 0.11685142666101456, 0.11844181269407272, -0.042587216943502426, 0.1513010710477829, -0.07863762229681015, -0.12382950633764267, 0.04402569308876991, -0.04192562401294708, -0.11333544552326202, -0.09565863758325577, 0.088100865483284, 0.024931423366069794, 0.11777548491954803, 0.02517915889620781, -0.03355608880519867, -0.10522520542144775, 0.06536807864904404, 0.1654711812734604, -0.006838827393949032, 0.05499234423041344, 0.0065004536882042885, 0.07677093893289566, -0.11086704581975937, -0.12032949924468994, 0.16952568292617798, -0.15332353115081787, 0.10491930693387985, 0.09332777559757233, 0.04304907098412514, -0.1756400465965271, -0.08290636539459229, -0.11125936359167099, 0.0548211969435215, -0.09038083255290985, -0.02385810948908329, 0.17490074038505554, 0.08006928861141205, 0.07646499574184418, -0.11122498661279678, -0.00305577483959496, 0.0966750830411911, -0.07388128340244293, 0.012966273352503777, -0.15966230630874634, -0.037127453833818436, 0.06084771454334259, 0.11453957855701447, 0.13405729830265045, 0.024253997951745987, -0.11661582440137863, -0.1710442155599594, -0.15722614526748657, -0.12423476576805115, 0.17342440783977509, -0.16242456436157227, -0.141487717628479, -0.0009233974269591272, -0.022210270166397095, 0.08048637211322784, 0.11860252171754837, -0.09356921166181564, -0.022001933306455612, -0.11306073516607285, -0.06862438470125198, 0.13244599103927612, -0.13767044246196747, 0.16970443725585938, -0.06782574206590652, -0.08875374495983124, 0.042965732514858246, -0.1325940638780594, 0.16565698385238647, 0.03117780014872551, -0.11498758941888809, 0.13146770000457764, 0.028646230697631836, 0.0690782219171524, 0.06759526580572128, 0.16003581881523132, 0.10836008191108704, -0.05176261439919472, -0.07369481027126312, 0.10327374935150146, 0.1652594953775406, 0.021588560193777084, 0.03548826649785042, 0.013330554589629173, -0.0489877350628376, 0.016765443608164787, -0.13297371566295624, -0.15898358821868896, -0.030687855556607246, -0.0020379195921123028, 0.054956741631031036, -0.10093074291944504, -0.007730728015303612, -0.06551405042409897, 0.1476282775402069, 0.10639708489179611, 0.0663997083902359, -0.08348250389099121, -0.07039761543273926, -0.001660574576817453, 0.08903487771749496, -0.047959767282009125, -0.0888574942946434, -0.05687248706817627, 0.14503997564315796, -0.10650064796209335, -0.06219910830259323, -0.1372511386871338, 0.15659397840499878, 0.1490374654531479, 0.00813304353505373, 0.06708507984876633, 0.07416578382253647, -0.13043813407421112, 0.13836853206157684, -0.13984782993793488, -0.060349032282829285, 0.09112884104251862, 0.07733823359012604, -0.001069531892426312, -0.05718724802136421, 0.13737821578979492, 0.07294455170631409, -0.16496944427490234, -0.025096870958805084, -0.16392366588115692, -0.08747363835573196, 0.12500931322574615, -0.1309727281332016, -0.05742213875055313, 0.011038961820304394, 0.037961337715387344, -0.027286112308502197, 0.11983708292245865, -0.12916725873947144, -0.1586482673883438, 0.13791294395923615, -0.17319586873054504, 0.12684454023838043, 0.11241014301776886, -0.11948657780885696, 0.011654510162770748, 0.15897174179553986, 0.03411756828427315, -0.15307751297950745, 0.162475124001503, 0.07121903449296951, -0.04690679535269737, 0.11515257507562637, 0.07666794210672379, 0.005562051199376583, -0.01171464566141367, -0.0938582494854927, 0.017974810674786568, -0.05930274724960327, 0.005240262020379305, 0.08336330205202103, 0.045109037309885025, -0.10365668684244156, -0.15821142494678497, -0.12380433082580566, 0.15198934078216553, -0.09460999816656113, 0.14094267785549164, 0.1639968305826187, -0.04261016845703125, -0.1353117823600769, -0.014608412981033325, -0.13625451922416687, 0.10837838798761368, 0.16439120471477509, -0.1023472473025322, 0.044739317148923874, -0.059622783213853836, 0.162962406873703, -0.08685510605573654, -0.10609766840934753, -0.08140290528535843, 0.1747506707906723, 0.030874568969011307, 0.054086312651634216, -0.1298844814300537, 0.051779553294181824, 0.14538221061229706, 0.04102884978055954, -0.10875990986824036, 0.09014683961868286, -0.10927532613277435, 0.06008002161979675, 0.0530521497130394, 0.12035128474235535, -0.09861649572849274, 0.06644998490810394, 0.13583937287330627, -0.06403884291648865, -0.1726362109184265, -0.08663219958543777, -0.10868630558252335, 0.05715195834636688, 0.12537509202957153, -0.1570064276456833, -0.0970105230808258, 0.09727617353200912, 0.15532225370407104, 0.019990740343928337, 0.043905340135097504, 0.1511029452085495, -0.11339423805475235, 0.13975849747657776, 0.14727658033370972, 0.1633434146642685, -0.01765977218747139, -0.0026628521736711264, 0.05887667089700699, 0.1711636185646057, 0.1673930585384369, 0.006266157142817974, -0.1534382551908493, 0.02667010761797428, -0.10988084226846695, 0.060300394892692566, -0.08751767128705978, -0.11146584898233414, 0.12353688478469849, -0.0917690321803093, -0.06294871866703033, 0.10943710058927536, 0.14510981738567352, 0.017025809735059738, 0.05853147432208061, 0.06750679016113281, 0.1413687765598297, 0.17550627887248993, -0.06460951268672943, 0.13415677845478058, -0.08276146650314331, 0.06117672100663185, -0.14931082725524902, -0.15525387227535248, 0.13765107095241547, -0.1723622977733612, -0.1535097360610962, -0.05589878186583519, -0.14206479489803314, 0.15066654980182648, 0.1566724181175232, 0.03920496255159378, 0.09458862245082855, -0.08264146745204926, -0.1493714600801468, 0.1508295238018036, -0.04975403845310211, -0.09908853471279144, 0.018759237602353096, -0.049688246101140976, -0.16440615057945251, -0.12979882955551147, 0.09581804275512695, -0.04180720075964928, 0.1274191439151764, 0.04856275022029877, -0.13331611454486847, -0.10791835188865662, 0.03205689787864685, -0.17543166875839233, 0.004326436668634415, 0.15598832070827484, 0.06982224434614182, 0.008808866143226624, 0.16675792634487152, 0.14056819677352905, -0.007553196512162685, -0.03534923493862152, 0.12466923892498016, -0.037382278591394424, 0.16958723962306976, 0.12736009061336517, -0.14351214468479156, 0.1732894331216812, 0.047712553292512894, -0.024927407503128052, -0.04633449390530586, -0.1105293557047844, 0.07141493260860443, -0.1459047645330429, -0.17088501155376434, -0.13360530138015747, -0.12082882970571518, 0.1606411635875702, -0.044755347073078156, -0.13131970167160034, -0.014686224982142448, -0.13026286661624908, 0.13279816508293152, 0.1251714527606964, 0.03812847658991814, -0.018488995730876923, -0.07821778953075409, 0.0767216682434082, -0.12150700390338898, -0.14990375936031342, 0.10934638977050781, 0.0762256607413292, 0.11858636885881424, -0.06945240497589111, -0.07758639007806778, -0.10431285202503204, 0.062034498900175095, -0.0011203668545931578, 0.14811646938323975, 0.09529989212751389, 0.1661941111087799, -0.1707032024860382, -0.03943251445889473, 0.04255366697907448, 0.04757336154580116, 0.11440972983837128, -0.033194296061992645, -0.17307715117931366, -0.04729665443301201, -0.07342063635587692, -0.03303799778223038, 0.15255935490131378, -0.0009670637082308531, -0.0697542056441307, -0.09457293897867203, 0.00833334680646658, 0.008967787027359009, 0.08566747605800629, 0.1416540890932083, 0.09153492748737335, 0.1451035887002945, -0.011955157853662968, 0.023008937016129494, 0.027583006769418716, -0.08965176343917847, 0.030919764190912247, -0.1747492402791977, -0.0295600313693285, 0.08481845259666443, -0.024421125650405884, -0.001052810694091022, 0.005279175471514463, 0.07019463926553726, 0.10196816921234131, -0.027220964431762695, -0.13332179188728333, -0.053647302091121674, 0.1518269181251526, -0.06268014013767242, 0.026935530826449394, 0.011123412288725376, 0.17247344553470612, -0.125398188829422, 0.13793416321277618, 0.11417359858751297, -0.14770540595054626, -0.06634902954101562, -0.08445005863904953, 0.16434699296951294, -0.061310842633247375, 0.09478588402271271, -0.05961896479129791, 0.09661604464054108, 0.0769219920039177, -0.16517435014247894, -0.17411085963249207, 0.1545022428035736, -0.039426714181900024, -0.1267598271369934, 0.16118893027305603, 0.0523410439491272, 0.13073866069316864, -0.0005646455683745444, -0.14684349298477173, 0.02108907513320446, 0.17110730707645416, 0.06118511036038399, 0.13521751761436462, -0.17535874247550964, 0.16628237068653107, -0.07940349727869034, 0.17309518158435822, 0.1479533463716507, -0.1745813488960266, -0.07404274493455887, 0.06541292369365692, -0.056811098009347916, -0.11039186269044876, 0.13721294701099396, -0.13143961131572723, -0.06273280829191208, 0.15554888546466827, -0.17011338472366333, -0.0164764616638422, 0.1767493486404419, 0.021343577653169632, -0.15549494326114655, 0.17213588953018188, 0.01385524682700634, -0.0768832117319107, 0.1441841721534729, 0.04573870822787285, -0.01694686897099018, -0.08232429623603821, 0.09549326449632645, -0.019526300951838493, 0.044885747134685516, -0.03251192718744278, 0.09461701661348343, 0.12377936393022537, -0.032720115035772324, -0.13129091262817383, 0.10045929253101349, -0.052647657692432404, 0.0563235841691494, 0.04962700232863426, -0.1671927571296692, -0.029930833727121353, -0.045226939022541046, 0.13675686717033386, -0.16421902179718018, -0.02701733261346817, 0.166115403175354, -0.06201355531811714, -0.11820945888757706, 0.01076723076403141, -0.08867534250020981, 0.08805295079946518, 0.0782875195145607, 0.08404532819986343, -0.17559213936328888, -0.05094033479690552, -0.054010819643735886, 0.02322996035218239, 0.04816671833395958, -0.07506536692380905, 0.04302232339978218, -0.026125924661755562, -0.17602704465389252, -0.13393792510032654, 0.11672364175319672, 0.10375207662582397, 0.14040400087833405, -0.010204941965639591, 0.008406287059187889, -0.1328832507133484, -0.009867777116596699, 0.11881052702665329, -0.1225939691066742, -0.06824789941310883, 0.08127172291278839, -0.026191333308815956, 0.06639547646045685, -0.13567519187927246, 0.08380918949842453, 0.04739411920309067, 0.08663386851549149, 0.16933958232402802, 0.086550772190094, -0.0024615006987005472, -0.045890118926763535, 0.17296111583709717, 0.08835043013095856, 0.13855016231536865, -0.02867620438337326, 0.144800066947937, -0.13329070806503296, -0.005235390737652779, 0.009249230846762657, -0.130766361951828, 0.033390067517757416, -0.005254468414932489, 0.16796304285526276, -0.10110639780759811, -0.07618638128042221, 0.07498002052307129, -0.17568464577198029, -0.03546421229839325, -0.08487242460250854, -0.1353965550661087, -0.07165497541427612, 0.05292871594429016, 0.017804857343435287, 0.11563201993703842, 0.023325558751821518, 0.0030770739540457726, 0.02788635902106762, -0.14633385837078094, -0.16367222368717194, -0.004642111714929342, -0.05411934852600098, -0.13605394959449768, -0.011667712591588497, 0.006820159498602152, -0.12993934750556946, 0.10923021286725998, 0.039300523698329926, -0.08288104832172394, 0.09022875130176544, 0.08073477447032928, -0.09023183584213257, -0.024464499205350876, -0.10823498666286469, 0.053192611783742905, -0.08137475699186325, -0.05589093640446663, -0.15342174470424652, -0.065480075776577, 0.09840720146894455, 0.09723535925149918, 0.08197741955518723, 0.008168532513082027, -0.026967838406562805, -0.11616984009742737, 0.004909946583211422, 0.012220388278365135, -0.06832976639270782, -0.07025346904993057, 0.018915370106697083, 0.05151642486453056, 0.03846355900168419, 0.08245474845170975, 0.0686022937297821, 0.11674071103334427, -0.16478963196277618, -0.1600240170955658, 0.14020927250385284, 0.0432661734521389, -0.10863738507032394, -0.16296444833278656, 0.11298374086618423, 0.16099119186401367, 0.10993529111146927, 0.046434130519628525, 0.08175171911716461, -0.13893082737922668, -0.1124797835946083, 0.026848694309592247, -0.12257949262857437, -0.006527845282107592, 0.02431827038526535, -0.004211585037410259, 0.0003489115624688566, -0.08270472288131714, -0.1297353059053421, 0.09323984384536743, 0.11335352063179016, -0.09343495965003967, -0.10825053602457047, -0.15602096915245056, -0.06980154663324356, 0.09718935936689377, 0.040150225162506104, -0.0662095695734024, -0.12546345591545105, 0.009767170995473862, 0.13025400042533875, -0.1519891321659088, -0.1441505402326584, -0.01915866695344448, -0.13640151917934418, 0.04302569106221199, 0.07600107043981552, 0.02935168705880642, -0.1478596329689026, 0.07524272799491882, -0.05371789261698723, 0.14017842710018158, -0.10215432196855545, -0.08219974488019943, -0.018229739740490913, 0.026374997571110725, 0.053012486547231674, 0.0631384626030922, -0.1136048436164856, -0.1724764108657837, 0.051735009998083115, -0.12005341053009033, 0.07640672475099564, -0.1217494010925293, -0.09207455813884735, 0.06308764964342117, 0.056929171085357666, -0.03933938220143318, -0.0038174898363649845, -0.019234364852309227, 0.11733341217041016, 0.14255723357200623, 0.15313248336315155, -0.013746267184615135, 0.07793284207582474, 0.08855095505714417, -0.06329605728387833, 0.04394782334566116, 0.104400634765625, 0.1662711501121521, 0.038728103041648865, 0.06618127226829529, -0.08577251434326172, 0.09551685303449631, -0.12925440073013306, -0.06867589801549911, -0.01808035746216774, 0.13006001710891724, -0.09468065947294235, 0.00241035595536232, 0.06184892728924751, -0.003819652134552598, 0.04664883762598038, -0.1645709127187729, -0.04394025355577469, -0.14766864478588104, -0.050400685518980026, 0.17623315751552582, -0.07199248671531677, 0.025185665115714073, -0.17413505911827087, 0.004705265164375305, 0.12858709692955017, -0.1385144293308258, 0.07482156157493591, 0.11432959139347076, 0.10435626655817032, -0.08668897300958633, 0.10299048572778702, 0.03965451940894127, 0.07995567470788956, 0.14286835491657257, -0.145515576004982, -0.09391465783119202, -0.015887882560491562, 0.09383200109004974, -0.0629507526755333, 0.16050824522972107, 0.03637667000293732, -0.06639240682125092, 0.15676753222942352, -0.11109436303377151, 0.012839145958423615, 0.12698175013065338, -0.15518058836460114, 0.04045674949884415, -0.12705250084400177, -0.09776288270950317, -0.1367664337158203, 0.17334260046482086, -0.12659969925880432, -0.08743886649608612, -0.0942305326461792, -0.126899853348732, -0.07173078507184982, 0.07592611759901047, -0.14056073129177094, -0.13148698210716248, -0.10234297066926956, 0.054981622844934464, 0.15841419994831085, -0.175104558467865, 0.012146562337875366, -0.018394969403743744, -0.015273652970790863, 0.07895571738481522, -0.08370341360569, 0.05820972099900246, 0.0473066084086895, 0.05147521570324898, -0.08856840431690216, 0.10061654448509216, -0.0627516582608223, 0.14810265600681305, 0.006884746253490448, 0.13416354358196259, -0.0200886782258749, -0.11832835525274277, -0.005096381530165672, 0.15083135664463043, -0.0935242623090744, -0.1331636607646942, -0.08693598955869675, 0.06972348690032959, -0.11365754157304764, -0.11627312749624252, 0.06877932697534561, -0.07890510559082031, -0.1755295693874359, -0.0490209236741066, -0.1721719652414322, 0.15676645934581757, 0.1328132152557373, -0.11315251141786575, -0.08289888501167297, 0.0979902595281601, -0.06967347115278244, -0.07714324444532394, -0.04630988463759422, 0.032244972884655, 0.11421552300453186, 0.029498804360628128, -0.008743348531425, 0.1368780881166458, -0.15916836261749268, -0.08193288743495941, -0.010904152877628803, 0.05143476650118828, -0.17180882394313812, 0.018941693007946014, 0.09444799274206161, -0.11321836709976196, -0.03542998433113098, -0.15303026139736176, -0.06375224888324738, -0.05179286003112793, -0.05352334678173065, -0.13593937456607819, -0.0035477459896355867, -0.14266464114189148, -0.1016068235039711, -0.0711720809340477, -0.1488301008939743, 0.12832725048065186, -0.086793914437294, 0.13762369751930237, 0.15067975223064423, -0.04786427319049835, 0.10441730916500092, -0.01775757223367691, -0.07782331109046936, -0.17388541996479034, 0.10562458634376526, 0.08270229399204254, -0.005224296357482672, -0.04575498029589653, 0.09291212260723114, 0.14364171028137207, 0.05119721218943596, -0.17585472762584686, 0.1340012401342392, 0.002623640699312091, -0.11877687275409698, 0.14438575506210327, -0.13493603467941284, -0.04077253118157387, -0.03070257045328617, -0.007078389171510935, 0.009366637095808983, -0.1328599452972412, -0.13942007720470428, 0.06218347325921059, 0.11003482341766357, -0.06350751221179962, 0.02251087874174118, -0.03931492567062378, 0.12381353229284286, 0.12562234699726105, -0.07885129749774933, 0.06891823559999466, -0.15527136623859406, -0.09766259044408798, 0.046638183295726776, 0.06739990413188934, -0.049982327967882156, 0.09185659140348434, 0.17209528386592865, 0.1306830197572708, 0.12006303668022156, 0.17076754570007324, -0.12201940268278122, 0.13400830328464508, -0.15515173971652985, 0.08838323503732681, 0.03595405071973801, -0.17571687698364258, 0.15256071090698242, 0.10887198150157928, -0.10068663209676743, -0.015749963000416756, -0.136881023645401, 0.0773889347910881, 0.11683866381645203, 0.0038039698265492916, -0.010780245065689087, -0.03265954554080963, 0.0007556395721621811, -0.08721061050891876, 0.068341463804245, 0.08447446674108505, -0.1153930127620697, -0.11402668803930283, -0.16358140110969543, 0.14562898874282837, 0.01570543460547924, 0.07553675770759583, 0.0906917154788971, -0.0687192752957344, -0.16475574672222137, -0.07606884092092514, 0.15542477369308472, -0.027445754036307335, -0.10343536734580994, -0.0950801745057106, -0.0858282744884491, -0.05470313876867294, -0.1016647145152092, -0.07390136271715164, 0.09896083176136017, -0.09512393176555634, -0.021361591294407845, 0.06501112133264542, -0.06894858926534653, 0.05103277787566185, -0.024511653929948807, 0.020445847883820534, -0.02299809828400612, 0.06781605631113052, 0.0075110187754035, -0.0022188478615134954, -0.09090101718902588, 0.11822429299354553, 0.11506500095129013, -0.10765198618173599, 0.005268651992082596, -0.02861913852393627, -0.020237140357494354, 0.14976288378238678, 0.17534410953521729, -0.1627635508775711, 0.0919545441865921, 0.06069478020071983, 0.05404987931251526, 0.12897881865501404, -0.11675398796796799, -0.08683069050312042, -0.021203158423304558, 0.14775803685188293, 0.16102944314479828, 0.025141214951872826, 0.08946052938699722, 0.1269235610961914, -0.1005333662033081, -0.13823965191841125, -0.0894407406449318, -0.0023711815010756254, 0.1121065616607666, 0.10950903594493866, -0.05462779849767685, 0.0070014349184930325, -0.17364048957824707, -0.14173524081707, 0.05530522018671036, -0.022630248218774796, -0.12411138415336609, -0.1753205507993698, 0.16860152781009674, 0.1716490238904953, -0.055860839784145355, -0.04686165601015091, 0.11382216215133667, 0.13451051712036133, 0.16889508068561554, 0.10985171049833298, 0.14054952561855316, -0.05597501993179321, -0.1325027346611023, 0.10984256118535995, -0.1526196300983429, 0.08782223612070084, 0.12361982464790344, -0.057830166071653366, 0.019540749490261078, -0.033734288066625595, -0.07033748924732208, 0.03186473622918129, -0.03624992445111275, 0.03177591413259506, -0.03162586688995361, -0.037016067653894424, 0.01077754981815815, 0.07230542600154877, -0.1686798632144928, -0.016301235184073448, -0.11770065128803253, -0.03868694230914116, 0.13230186700820923, 0.052264563739299774, -0.09031469374895096, -0.04181009531021118, -0.10839320719242096, 0.13945907354354858, 0.16349710524082184, -0.10425867140293121, 0.1057848259806633, 0.10495975613594055, -0.06532711535692215, -0.0955255776643753, 0.11792007833719254, 0.17607621848583221, -0.12453290820121765, 0.1602698415517807, -0.08352924138307571, 0.023622684180736542, -0.16704516112804413, -0.1596863567829132, -0.03752101585268974, 0.11506475508213043, -0.05206643417477608, 0.02759351022541523, 0.08122330904006958, -0.17467562854290009, 0.17609688639640808, 0.14709915220737457, 0.09353920072317123, 0.012303526513278484, 0.023130949586629868, 0.13477523624897003, 0.02055841125547886, -0.007411957252770662, -0.12825804948806763, 0.04914739727973938, -0.04462289437651634, 0.14558540284633636, -0.09454067796468735, -0.10818229615688324, -0.17297670245170593, -0.0981065109372139, -0.009412722662091255, 0.07034824788570404, -0.02695644274353981, -0.0947984829545021, 0.11611706763505936, 0.02566458284854889, 0.1675810068845749, -0.10515034198760986, -0.08510641753673553, 0.0021805637516081333, 0.0912867933511734, 0.022824294865131378, -0.1680828481912613, 0.03230417147278786, -0.0688338428735733, 0.12539798021316528, 0.08789727091789246, 0.17464162409305573, -0.15739624202251434, -0.1096629649400711, 0.008972147479653358, 0.03145021200180054, 0.17046110332012177, -0.15953943133354187, 0.12825609743595123, 0.16863588988780975, -0.1661330610513687, -0.07673632353544235, 0.025928951799869537, -0.04461275041103363, 0.006647773552685976, -0.09038468450307846, 0.06070704385638237, -0.011198124848306179, 0.15943674743175507, -0.031952645629644394, -0.16546855866909027, 0.04788503423333168, -0.03500508889555931, -0.05965305492281914, -0.16508695483207703, 0.14813590049743652, -0.014546980150043964, -0.041660912334918976, -0.13139787316322327, -0.1687575727701187, -0.030549637973308563, 0.02649279497563839, -0.15672752261161804, 0.07617247104644775, 0.04221479594707489, 0.10204368829727173, 0.07258538156747818, -0.12713880836963654, 0.13526347279548645, 0.0023020505905151367, -0.1063835620880127, -0.061111051589250565, -0.16814139485359192, 0.09389003366231918, 0.06868385523557663, -0.17662428319454193, 0.17642991244792938, 0.015162773430347443, 0.08104401081800461, -0.07153130322694778, 0.16513589024543762, -0.16683660447597504, -0.11486970633268356, -0.0346730500459671, -0.037205591797828674, -0.020677965134382248, 0.0899442508816719, 0.061638057231903076, 0.04370160028338432, 0.057697128504514694, -0.09011564403772354, 0.03837167099118233, 0.1655278205871582, 0.1276855766773224, -0.11370334774255753, -0.12891212105751038, -0.11943094432353973, -0.15967603027820587, 0.0862504318356514, -0.08079520612955093, 0.08671335875988007, 0.13642920553684235, 0.07285112887620926, 0.00742797926068306, 0.10146427154541016, -0.000781190290581435, -0.09686099737882614, 0.15900103747844696, -0.11743832379579544, 0.12633942067623138, 0.061771657317876816, -0.023305244743824005, -0.06007569655776024, -0.11661970615386963, 0.105966717004776, -0.12233923375606537, 0.15429693460464478, 0.11014348268508911, 0.03896082565188408, 0.16005396842956543, -0.014774954877793789, -0.03541462495923042, -0.1037176176905632, 0.007852096110582352, -0.14086352288722992, 0.061268508434295654, -0.08246461302042007, 0.16255848109722137, 0.15836483240127563, 0.03940980136394501, 0.022440465167164803, -0.08476979285478592, -0.116880863904953, -0.020656276494264603, 0.026896923780441284, -0.1175396516919136, 0.13657402992248535, -0.004286999814212322, 0.005751571152359247, -0.11224120855331421, -0.06766960024833679, 0.07756952196359634, -0.04802604392170906, -0.11261959373950958, 